\data\
ngram 1=160
ngram 2=1946
ngram 3=6048
ngram 4=18427
ngram 5=31578

\1-grams:
-2.9458156	<unk>	0
0	<s>	-1.9905286
-2.7914166	</s>	0
-1.9105548	a_2	-0.91891396
-1.3865392	|	-1.2630647
-1.5574697	m	-0.3105416
-1.9291089	a_5a	-0.848714
-2.9393458	d	-0.11605572
-2.213214	a_4	-0.5562005
-1.9900613	k	-0.17087129
-2.0609872	O_5a	-0.68390375
-2.9393458	b	-0.11336513
-2.145801	E_5a	-0.48869538
-2.9393458	l	-0.16347666
-2.0360358	e_1	-0.6191785
-2.9393458	h	-0.15117534
-2.1156516	wp	-0.3389842
-2.0874598	i_5a	-0.6296744
-2.0874598	a_X_5b	-0.7918092
-2.9393458	t_h	-0.16093124
-1.8756676	a_1	-0.9849338
-1.7339218	N	-0.32652202
-2.213214	E_3	-0.7740804
-2.0609872	o_3	-0.6481728
-1.5909512	j	-1.5699605
-2.9393458	ts_	-0.14434393
-1.4768281	n	-0.43298337
-2.9393458	v	-0.18182349
-2.9393458	tS	-0.14367253
-1.9105548	7_X_1	-0.8795906
-1.9900613	o_1	-0.8622165
-2.213214	u_4	-0.59921026
-2.0360358	Nm	-1.1262629
-2.8251798	E_6b	-0.044663504
-1.9105548	p	-0.7661304
-2.0609872	J	-0.24228765
-2.1782007	M_1	-0.59921026
-1.9291089	a_X_1	-0.8441183
-2.9393458	r	-0.2214379
-2.0609872	a_X_2	-0.590544
-2.9393458	z	-0.19241743
-2.517521	O_X_2	-0.64914167
-2.3909407	M_3	-0.3378363
-1.6773083	w	-1.4837742
-2.1782007	O_X_1	-0.9849338
-2.145801	O_1	-0.5556421
-2.0874598	7_X_2	-0.69335204
-2.1782007	a_6a	-0.4774766
-1.9900613	7_2	-0.77530146
-2.0124404	a_3	-0.6370496
-2.3909407	a_X_6b	-0.42632407
-1.8133196	t	-0.25598553
-2.1782007	M7_2	-0.40951413
-2.9393458	x	-0.1628264
-1.9484911	i_1	-0.78725654
-2.2512994	e_5a	-0.5486044
-2.9393458	S	-0.16779292
-2.9393458	s	-0.14906508
-2.0874598	u_2	-0.59625065
-2.1782007	7_5a	-0.40951413
-2.1156516	i_2	-0.57584554
-2.0609872	7_X_5a	-0.6668705
-1.9900613	E_1	-0.7602921
-2.1782007	uo_1	-0.49937934
-2.9393458	f	-0.1930332
-1.9900613	a_5b	-0.8252329
-2.3392422	M_4	-0.5699605
-2.0360358	ie_5a	-0.6344184
-2.0124404	u_1	-0.6205072
-2.1156516	u_5b	-0.7160884
-2.1782007	M_2	-0.6731543
-2.4496353	e_2	-0.42311895
-2.2930486	E_X_1	-0.8709904
-2.0124404	a_X_5a	-0.6633821
-2.2930486	o_5b	-0.6113531
-2.517521	kp	-0.64914167
-2.213214	o_6a	-0.53198403
-2.213214	u_5a	-0.5296085
-2.9393458	dZ	-0.17113574
-2.3392422	O_X_6b	-0.8252329
-2.145801	O_2	-0.48869538
-2.1156516	o_2	-0.613284
-2.145801	M_5b	-0.74605167
-2.517521	ie_6b	-0.47777936
-2.213214	ie_2	-0.40732923
-2.0609872	ie_1	-0.5413259
-2.0124404	7_1	-0.8252329
-2.696914	uo_3	-0.33775106
-2.2512994	o_4	-0.64319104
-2.4496353	uo_6b	-0.58078915
-2.517521	E_6a	-0.28371218
-2.1156516	7_X_5b	-0.6258964
-2.2930486	i_5b	-0.6110064
-2.0874598	7_X_6b	-0.8252329
-2.145801	O_3	-0.7740804
-2.4496353	M7_6b	-0.47305042
-2.213214	i_6a	-0.52002895
-2.8251798	O_X_4	-0.3481117
-2.5980198	M_6a	-0.28371218
-2.3392422	E_X_5a	-0.8252329
-2.0360358	7_3	-0.6693621
-2.3909407	uo_2	-0.43526185
-2.1782007	E_2	-0.57438666
-2.2512994	i_3	-0.4932708
-2.0124404	o_5a	-0.736104
-2.213214	E_5b	-0.68390375
-2.213214	O_6a	-0.47305042
-2.2512994	M7_3	-0.64914167
-2.2512994	o_6b	-0.42632407
-2.4496353	O_X_5b	-0.7160884
-1.9900613	M7_1	-0.6754319
-2.4496353	7_X_4	-0.3889036
-2.4496353	a_X_4	-0.16693859
-2.696914	ie_4	-0.1566971
-2.9393458	G	-0.1930332
-2.145801	M7_5a	-0.46685606
-2.2512994	ie_6a	-0.61075234
-2.3909407	uo_5a	-0.41505843
-2.145801	M7_5b	-0.701183
-2.145801	7_X_6a	-0.48869538
-2.517521	e_3	-0.64914167
-2.3392422	ie_5b	-0.3885355
-2.4496353	i_4	-0.40015304
-2.2930486	e_5b	-0.47305042
-2.4496353	a_6b	-0.3885355
-2.2930486	M7_6a	-0.3434423
-2.4496353	E_4	-0.34216106
-2.1782007	a_X_3	-0.61075234
-2.2512994	7_6a	-0.55126286
-2.3392422	M7_4	-0.58692384
-2.2930486	u_3	-0.38414022
-2.4496353	uo_5b	-0.58078915
-2.2930486	i_6b	-0.39386916
-2.5980198	ie_3	-0.21809113
-2.4496353	7_4	-0.7160884
-2.696914	7_6b	-0.33775106
-2.517521	e_6a	-0.15005703
-2.3909407	M_5a	-0.5384557
-2.3392422	7_X_3	-0.3835938
-2.3909407	a_X_6a	-0.3439377
-2.517521	E_X_6b	-0.64914167
-2.2930486	E_X_2	-0.8709904
-2.3392422	E_X_3	-0.8252329
-2.5980198	E_X_6a	-0.5699605
-2.4496353	E_X_5b	-0.7160884
-2.4496353	O_4	-0.47777936
-2.5980198	uo_6a	-0.07383583
-2.2930486	u_6a	-0.58078915
-2.2930486	u_6b	-0.5384557
-2.696914	O_X_6a	-0.47305042
-2.3909407	M_6b	-0.6387811
-2.696914	7_5b	-0.044663504
-2.2930486	O_X_5a	-0.8709904
-2.3909407	O_5b	-0.47305042
-2.696914	e_4	-0.4346611
-2.696914	O_6b	-0.33775106
-2.8251798	e_6b	-0.11605576
-2.696914	O_X_3	-0.47305042
-2.7914166	E_X_4	-0.30807447
-2.7914166	uo_4	-0.30807447

\2-grams:
-1.3502462	| </s>	0
-2.5873475	<s> a_2	-0.92297196
-2.1583292	| a_2	-0.8998278
-2.1393402	m a_2	-0.1744409
-1.9538863	d a_2	-0.21540883
-2.0151477	k a_2	-0.2851665
-1.9521891	b a_2	-0.16239241
-1.9936495	l a_2	-0.16239241
-1.9665933	h a_2	-0.1744409
-1.1649185	wp a_2	-0.3756723
-2.1208942	N a_2	-0.1995895
-1.9694481	ts_ a_2	-0.15532053
-2.2276757	n a_2	-0.22628444
-1.9880028	v a_2	-0.1744409
-1.7548435	tS a_2	-0.2851665
-2.0204892	J a_2	-0.21540883
-1.8282614	r a_2	-0.2851665
-1.85125	z a_2	-0.2851665
-2.0793498	t a_2	-0.1744409
-1.6873641	x a_2	-0.2851665
-1.806677	S a_2	-0.2851665
-1.8286163	s a_2	-0.2851665
-1.6331434	f a_2	-0.2851665
-1.7082936	dZ a_2	-0.2851665
-1.9093821	G a_2	-0.12813136
-0.54764783	a_2 |	-0.57429564
-0.46505445	m |	-0.8391493
-0.7150465	a_5a |	-0.33509815
-0.4925714	a_4 |	-0.21444772
-0.8411272	k |	-0.67504716
-0.4204283	O_5a |	-0.45253113
-0.41680032	E_5a |	-0.23230045
-0.37050128	e_1 |	-0.36507383
-0.3552983	i_5a |	-0.33825442
-0.549954	a_1 |	-0.6450929
-0.5000147	N |	-0.8635611
-0.17212024	E_3 |	-0.37482607
-0.3080902	o_3 |	-0.2854761
-0.011357424	j |	-1.0708474
-0.34446257	n |	-1.0391436
-0.5785825	o_1 |	-0.29620653
-0.3609501	u_4 |	-0.18432629
-0.032312226	Nm |	-0.7028742
-0.112380944	p |	-0.6252887
-0.7021118	J |	-0.61666036
-0.5704169	M_1 |	-0.22796908
-0.37173802	M_3 |	-0.28106338
-0.013890772	w |	-0.86575
-0.3731215	O_1 |	-0.28528604
-0.7303674	a_6a |	-0.29639232
-0.29022408	7_2 |	-0.3084699
-0.45410645	a_3 |	-0.39255688
-0.63941246	t |	-0.85990274
-0.7145906	M7_2 |	-0.18432629
-0.27994683	i_1 |	-0.4709316
-0.28111216	e_5a |	-0.24480473
-0.49953216	u_2 |	-0.22221336
-0.5856938	7_5a |	-0.17783427
-0.39332488	i_2 |	-0.35039
-0.5431845	E_1 |	-0.29802874
-0.5424583	uo_1 |	-0.24396555
-0.32196945	M_4 |	-0.23265398
-1.1767399	ie_5a |	-0.21540883
-0.43773562	u_1 |	-0.27329323
-0.7312899	M_2 |	-0.2433344
-0.4948371	e_2 |	-0.22628444
-0.105187744	kp |	-0.34778672
-0.8393242	o_6a |	-0.21082988
-0.64382607	u_5a |	-0.20214674
-0.3061747	O_2 |	-0.19487302
-0.6430762	o_2 |	-0.23633556
-1.2809738	ie_2 |	-0.2851665
-0.9282237	ie_1 |	-0.19958955
-0.51986605	7_1 |	-0.24392875
-0.83600867	uo_3 |	-0.2851665
-0.254878	o_4 |	-0.25867316
-0.3973695	E_6a |	-0.23422298
-0.26138565	O_3 |	-0.38114944
-0.4096699	i_6a |	-0.24136432
-0.3973695	M_6a |	-0.22991475
-0.18112253	7_3 |	-0.28466925
-0.5911571	uo_2 |	-0.24134237
-0.46402758	E_2 |	-0.24978484
-0.2518814	i_3 |	-0.27589783
-0.73463804	o_5a |	-0.26715365
-0.6289456	O_6a |	-0.24237874
-0.24893625	M7_3 |	-0.25679797
-0.5270381	M7_1 |	-0.26883948
-0.807886	ie_4 |	-0.2851665
-0.7061496	M7_5a |	-0.19104381
-0.873085	uo_5a |	-0.22530606
-0.105187744	e_3 |	-0.26444605
-0.45828867	i_4 |	-0.32618356
-0.45492375	M7_6a |	-0.23307587
-0.59349716	E_4 |	-0.20150605
-0.30987337	7_6a |	-0.22944717
-0.19459124	M7_4 |	-0.27689892
-0.24301031	u_3 |	-0.27261204
-0.08850928	7_4 |	-0.24520321
-0.5761504	e_6a |	-0.24027357
-0.46334437	M_5a |	-0.1832618
-0.27109215	O_4 |	-0.1995895
-1.2036573	uo_6a |	-0.2851665
-0.3132968	u_6a |	-0.24888854
-0.2628743	e_4 |	-0.23659636
-1.1798737	<s> m	-0.97813946
-1.3670107	a_2 m	-0.42270654
-1.4155504	| m	-0.6771357
-0.85946864	a_5a m	-0.77488905
-0.9673112	O_5a m	-0.42270654
-1.7022296	E_5a m	-0.12813136
-1.1822134	e_1 m	-0.2977678
-1.5966115	i_5a m	-0.2851665
-1.1228781	a_1 m	-0.6657446
-0.8132244	7_X_1 m	-0.77488905
-1.2367955	o_1 m	-0.42270654
-0.83700764	a_X_1 m	-0.7237365
-0.6797614	a_X_2 m	-0.6657446
-1.7691765	O_1 m	-0.12813136
-0.47042447	7_X_2 m	-0.8620392
-0.96848154	a_6a m	-0.42270654
-1.6295966	7_2 m	-0.2851665
-1.9328395	a_3 m	-0.12813136
-1.106534	i_1 m	-0.42270654
-1.3287038	e_5a m	-0.2851665
-1.82864	u_2 m	-0.12813136
-0.91698545	7_5a m	-0.2977678
-1.7893798	i_2 m	-0.12813136
-0.7164047	7_X_5a m	-0.5987978
-0.8098263	E_1 m	-0.5987978
-0.878006	ie_5a m	-0.5196166
-1.8809712	u_1 m	-0.12813136
-1.4006668	M_2 m	-0.2851665
-1.277414	e_2 m	-0.2851665
-0.7249089	a_X_5a m	-0.6657446
-1.4744269	o_6a m	-0.2851665
-1.4194381	u_5a m	-0.2851665
-0.9961667	O_2 m	-0.2977678
-1.580221	o_2 m	-0.2851665
-1.6054481	ie_2 m	-0.12813136
-1.80179	ie_1 m	-0.12813136
-1.1086403	7_1 m	-0.42270654
-1.8170387	7_3 m	-0.12813136
-1.4286817	E_2 m	-0.2851665
-1.6409473	i_3 m	-0.12813136
-1.6785469	o_5a m	-0.2851665
-0.70973325	7_X_4 m	-0.2977678
-1.3635654	a_X_4 m	-0.12813136
-1.4577036	M7_5a m	-0.2851665
-1.3908516	ie_6a m	-0.2851665
-1.7022296	7_X_6a m	-0.12813136
-1.3908516	a_X_3 m	-0.2851665
-1.4147179	ie_3 m	-0.12813136
-1.2058053	7_X_3 m	-0.2851665
-1.1982328	a_X_6a m	-0.2851665
-1.087256	O_4 m	-0.2851665
-1.0179561	uo_6a m	-0.2851665
-1.3608884	u_6a m	-0.2851665
-0.57243085	uo_4 m	-0.2851665
-3.6985729	<s> a_5a	-0.2851665
-3.1205928	| a_5a	-0.12813136
-2.1546538	m a_5a	-0.1744409
-1.9695275	d a_5a	-0.22628444
-2.031027	k a_5a	-0.12813136
-1.9678668	b a_5a	-0.21540883
-2.0090125	l a_5a	-0.1744409
-1.859039	h a_5a	-0.2851665
-1.2311059	wp a_5a	-0.20343105
-1.8629478	t_h a_5a	-0.2851665
-1.9846295	ts_ a_5a	-0.2851665
-1.8711424	v a_5a	-0.2851665
-1.9271237	tS a_5a	-0.1744409
-1.8777015	J a_5a	-0.2851665
-1.8373818	r a_5a	-0.2851665
-1.8615447	z a_5a	-0.2851665
-1.9801272	t a_5a	-0.2851665
-1.8946269	x a_5a	-0.1744409
-1.9668804	S a_5a	-0.1744409
-1.9703069	s a_5a	-0.1995895
-1.6393355	f a_5a	-0.2851665
-1.7160501	dZ a_5a	-0.2851665
-1.719082	G a_5a	-0.2851665
-1.1775317	<s> d	-0.8775207
-1.3801458	| d	-0.7841135
-2.2055187	m a_4	-0.2851665
-2.1938345	d a_4	-0.12813136
-2.1145017	k a_4	-0.2851665
-2.0394282	b a_4	-0.2851665
-2.2280347	l a_4	-0.12813136
-2.006851	h a_4	-0.2851665
-2.332723	wp a_4	-0.2851665
-2.1246855	N a_4	-0.2851665
-2.0282323	ts_ a_4	-0.2851665
-1.9992682	J a_4	-0.2851665
-1.9528414	r a_4	-0.2851665
-1.9803299	s a_4	-0.2851665
-0.818473	<s> k	-1.2087259
-1.3571864	| k	-0.81582206
-0.57216215	a_X_5b k	-0.7237365
-0.64779913	a_X_6b k	-0.42270654
-0.49207318	a_5b k	-0.8206466
-0.19014186	M_5b k	-0.8620392
-1.1192826	ie_6b k	-0.2851665
-1.1234121	uo_6b k	-0.2851665
-1.895901	7_X_5b k	-0.12813136
-0.6847267	i_5b k	-0.42270654
-0.47468776	M7_6b k	-0.42270654
-0.26526594	M7_5b k	-0.8206466
-1.6585401	ie_5b k	-0.12813136
-0.8499036	e_5b k	-0.2977678
-0.61001056	a_6b k	-0.42270654
-1.1234121	uo_5b k	-0.2851665
-0.7707224	i_6b k	-0.2977678
-0.10903152	E_X_6b k	-0.5987978
-0.09167736	E_X_5b k	-0.6657446
-0.14928378	M_6b k	-0.6657446
-2.1257062	m O_5a	-0.2851665
-2.077449	d O_5a	-0.1995895
-2.140853	k O_5a	-0.12813136
-1.9542392	b O_5a	-0.2851665
-2.1147213	l O_5a	-0.1744409
-2.2310555	N O_5a	-0.1744409
-2.0889025	ts_ O_5a	-0.12813136
-2.3379292	n O_5a	-0.12813136
-1.8238616	tS O_5a	-0.2851665
-2.1260915	J O_5a	-0.12813136
-1.896535	r O_5a	-0.2851665
-2.0575895	t O_5a	-0.2851665
-1.7430606	x O_5a	-0.2851665
-2.0606163	S O_5a	-0.12813136
-2.069553	s O_5a	-0.12813136
-1.9912602	dZ O_5a	-0.12813136
-1.7665452	G O_5a	-0.2851665
-1.0336783	<s> b	-1.0051023
-1.4463153	| b	-0.714934
-3.0169199	<s> E_5a	-0.5376211
-2.8651173	| E_5a	-0.1744409
-2.0769696	k E_5a	-0.2851665
-2.1423285	b E_5a	-0.12813136
-2.0286093	l E_5a	-0.2851665
-1.9759614	h E_5a	-0.2851665
-2.0932393	wp E_5a	-0.2851665
-1.9953462	ts_ E_5a	-0.2851665
-2.20476	n E_5a	-0.2851665
-1.982492	v E_5a	-0.2851665
-1.9744825	J E_5a	-0.2851665
-1.769306	x E_5a	-0.2851665
-1.9510732	s E_5a	-0.2851665
-2.0445316	G E_5a	-0.12813136
-1.6029377	<s> l	-0.63997304
-1.3801458	| l	-0.6338772
-3.7596436	<s> e_1	-0.2851665
-3.0961354	| e_1	-0.2851665
-2.111364	m e_1	-0.2851665
-2.0574956	d e_1	-0.12813136
-2.12051	k e_1	-0.1744409
-2.0560663	b e_1	-0.12813136
-2.0952184	l e_1	-0.1744409
-2.217475	wp e_1	-0.1744409
-1.9231156	t_h e_1	-0.2851665
-1.9362168	ts_ e_1	-0.2851665
-2.3203592	n e_1	-0.1744409
-1.9294547	v e_1	-0.2851665
-2.0008097	tS e_1	-0.1995895
-1.8860996	r e_1	-0.2851665
-2.0812829	z e_1	-0.12813136
-2.1791425	t e_1	-0.12813136
-1.7346531	x e_1	-0.2851665
-2.0513558	s e_1	-0.12813136
-1.4256887	<s> h	-0.8165918
-1.4535224	| h	-0.6275426
-3.2730973	| wp	-0.12813136
-2.1203368	d wp	-0.1995895
-2.1846418	k wp	-0.22973971
-2.0125504	l wp	-0.2851665
-2.1229591	h wp	-0.19104381
-2.1285763	t_h wp	-0.21082988
-2.2684462	N wp	-0.19258514
-2.1300797	ts_ wp	-0.18863274
-1.9686131	v wp	-0.2851665
-2.051882	tS wp	-0.1744409
-2.1364825	z wp	-0.12813136
-2.2392051	t wp	-0.24503857
-1.7603801	x wp	-0.2851665
-1.9043286	S wp	-0.2851665
-2.1084073	s wp	-0.20830679
-2.5206153	<s> i_5a	-1.1216766
-1.9890975	| i_5a	-1.075919
-2.1621957	k i_5a	-0.1995895
-1.9699924	b i_5a	-0.2851665
-2.1351411	l i_5a	-0.21540883
-1.9471238	h i_5a	-0.2851665
-2.0686045	wp i_5a	-0.2851665
-2.1090033	ts_ i_5a	-0.15532053
-1.9551642	v i_5a	-0.2851665
-1.8346815	tS i_5a	-0.2851665
-2.1435146	J i_5a	-0.12813136
-1.9072273	r i_5a	-0.2851665
-1.9413756	z i_5a	-0.2851665
-2.0719578	t i_5a	-0.2851665
-1.751634	x i_5a	-0.2851665
-1.9236636	s i_5a	-0.2851665
-3.2508388	| a_X_5b	-0.12813136
-2.280304	m a_X_5b	-0.12813136
-2.042425	k a_X_5b	-0.2851665
-2.0970592	b a_X_5b	-0.12813136
-1.997064	l a_X_5b	-0.2851665
-2.252599	wp a_X_5b	-0.12813136
-1.9497287	t_h a_X_5b	-0.2851665
-2.0719354	N a_X_5b	-0.2851665
-1.9647759	ts_ a_X_5b	-0.2851665
-2.1791403	n a_X_5b	-0.2851665
-1.9510354	J a_X_5b	-0.2851665
-1.9072273	r a_X_5b	-0.2851665
-2.0719578	t a_X_5b	-0.2851665
-1.751634	x a_X_5b	-0.2851665
-2.0784125	S a_X_5b	-0.1744409
-2.0885458	s a_X_5b	-0.1995895
-1.269912	<s> t_h	-1.0146846
-1.4186264	| t_h	-0.6683453
-2.0216956	<s> a_1	-1.2361768
-1.7845235	| a_1	-0.8875557
-2.1102438	m a_1	-0.1995895
-1.9241987	d a_1	-0.1744409
-1.9850312	k a_1	-0.15532053
-1.9224359	b a_1	-0.15532053
-1.8666326	l a_1	-0.2851665
-1.9383516	h a_1	-0.21540883
-1.391763	wp a_1	-0.26319462
-1.9453974	t_h a_1	-0.15532053
-1.9627157	N a_1	-0.2851665
-1.94059	ts_ a_1	-0.1744409
-2.20071	n a_1	-0.2851665
-1.8395774	v a_1	-0.2851665
-1.888252	tS a_1	-0.15532053
-2.0213327	p a_1	-0.2851665
-1.9944988	J a_1	-0.1995895
-1.963738	r a_1	-0.12813136
-1.8313651	z a_1	-0.2851665
-2.0506034	t a_1	-0.1744409
-1.8599447	x a_1	-0.1744409
-1.9266478	S a_1	-0.21540883
-1.9280678	s a_1	-0.1744409
-1.8398343	f a_1	-0.12813136
-1.8754334	dZ a_1	-0.1744409
-1.6971637	G a_1	-0.2851665
-1.6802189	<s> N	-0.76025736
-0.7540777	a_2 N	-0.9345899
-1.4867108	| N	-0.57933986
-0.8636061	a_5a N	-0.77488905
-1.4089707	a_4 N	-0.2851665
-0.7847785	a_1 N	-0.9667746
-1.2637924	7_X_1 N	-0.42270654
-0.42676103	M_1 N	-0.7237365
-0.84097755	a_X_1 N	-0.7237365
-0.6847229	a_X_2 N	-0.6657446
-1.1875786	M_3 N	-0.2851665
-1.6724871	7_X_2 N	-0.2851665
-1.873369	a_6a N	-0.12813136
-1.1192495	a_3 N	-0.42270654
-0.49830925	M7_2 N	-0.5987978
-0.9865542	uo_1 N	-0.2977678
-0.5680282	M_4 N	-0.42270654
-0.8851025	ie_5a N	-0.5196166
-0.23593049	M_2 N	-0.8206466
-0.6602414	a_X_5a N	-0.7237365
-1.3613865	ie_2 N	-0.2851665
-0.81967276	ie_1 N	-0.5196166
-1.4256797	M_6a N	-0.12813136
-0.8036934	uo_2 N	-0.2977678
-0.64720947	M7_3 N	-0.42270654
-0.37089646	M7_1 N	-0.9667746
-1.1187869	a_X_4 N	-0.2851665
-0.53909653	M7_5a N	-0.6657446
-1.4157637	ie_6a N	-0.2851665
-0.90223336	uo_5a N	-0.2977678
-1.582738	M7_6a N	-0.12813136
-0.5019708	a_X_3 N	-0.5987978
-1.1699395	ie_3 N	-0.2851665
-0.47168398	M_5a N	-0.5196166
-0.76002586	a_X_6a N	-0.2977678
-1.3615985	uo_6a N	-0.12813136
-2.2055187	m E_3	-0.2851665
-2.0389702	d E_3	-0.2851665
-2.2599123	k E_3	-0.1744409
-2.0394282	b E_3	-0.2851665
-2.0626268	l E_3	-0.2851665
-2.1193562	wp E_3	-0.2851665
-2.0084114	t_h E_3	-0.2851665
-2.2319865	n E_3	-0.2851665
-2.0116556	v E_3	-0.2851665
-1.8808775	tS E_3	-0.2851665
-1.9945855	z E_3	-0.2851665
-2.1579323	S E_3	-0.12813136
-3.111603	| o_3	-0.2851665
-2.1257062	m o_3	-0.2851665
-1.9543403	d o_3	-0.2851665
-2.0261312	k o_3	-0.2851665
-1.9542392	b o_3	-0.2851665
-1.9821109	l o_3	-0.2851665
-2.0830257	h o_3	-0.12813136
-1.9362184	t_h o_3	-0.2851665
-1.9502616	ts_ o_3	-0.2851665
-2.1668758	n o_3	-0.2851665
-1.8238616	tS o_3	-0.2851665
-1.896535	r o_3	-0.2851665
-2.198255	t o_3	-0.1744409
-1.7430606	x o_3	-0.2851665
-1.8806523	S o_3	-0.2851665
-1.9105814	s o_3	-0.2851665
-1.6784658	f o_3	-0.2851665
-0.83214396	a_2 j	-0.8620392
-0.8083812	a_5a j	-0.8206466
-0.49839303	a_4 j	-0.5987978
-0.5829638	O_5a j	-0.7237365
-0.72004	a_1 j	-1.0247666
-0.5398971	o_3 j	-0.6657446
-0.6730739	7_X_1 j	-0.8998278
-0.6556998	o_1 j	-0.8998278
-0.81274813	u_4 j	-0.42270654
-0.67968994	a_X_1 j	-0.8620392
-0.6121992	a_X_2 j	-0.7237365
-1.4749602	M_3 j	-0.12813136
-0.87444913	O_1 j	-0.42270654
-1.205968	7_X_2 j	-0.2977678
-0.5934756	a_6a j	-0.7237365
-0.6007569	7_2 j	-0.7237365
-0.79934263	a_3 j	-0.6657446
-0.9198669	M7_2 j	-0.2977678
-0.71520245	u_2 j	-0.5987978
-0.59585655	7_5a j	-0.5196166
-0.6350975	7_X_5a j	-0.6657446
-0.6515593	uo_1 j	-0.5196166
-1.2126651	u_1 j	-0.2977678
-0.90853673	a_X_5a j	-0.5196166
-0.5372425	o_6a j	-0.6657446
-0.46830308	u_5a j	-0.6657446
-1.7170765	O_2 j	-0.12813136
-0.58140767	o_2 j	-0.7237365
-0.5231931	7_1 j	-0.8998278
-0.37129274	uo_3 j	-0.2977678
-0.70904917	o_4 j	-0.42270654
-0.52988845	O_3 j	-0.5987978
-0.8798288	7_3 j	-0.42270654
-0.4715331	o_5a j	-0.8998278
-0.83424467	O_6a j	-0.2977678
-1.2178699	M7_1 j	-0.2977678
-1.1744168	7_X_4 j	-0.2851665
-1.3778361	a_X_4 j	-0.12813136
-0.84936875	M7_5a j	-0.42270654
-0.56723845	uo_5a j	-0.5196166
-0.9990482	7_X_6a j	-0.2977678
-0.41654557	a_X_3 j	-0.6657446
-0.6278443	7_6a j	-0.5196166
-1.200048	M7_4 j	-0.2851665
-1.5705926	u_3 j	-0.12813136
-0.32237968	7_X_3 j	-0.5987978
-0.75195694	a_X_6a j	-0.2977678
-1.0909035	O_4 j	-0.2851665
-1.3663023	u_6a j	-0.2851665
-0.5740748	uo_4 j	-0.2851665
-1.156476	<s> ts_	-1.0441612
-1.4054171	| ts_	-0.6915132
-1.3613915	<s> n	-1.076479
-1.0534986	a_2 n	-0.6657446
-1.4393378	| n	-0.6361819
-1.0636035	a_5a n	-0.5987978
-1.3651466	a_4 n	-0.2851665
-1.1516491	O_5a n	-0.2977678
-0.98833984	E_5a n	-0.2977678
-0.75886494	e_1 n	-0.5987978
-1.8220453	i_5a n	-0.12813136
-1.2984244	a_1 n	-0.5196166
-0.6328058	7_X_1 n	-0.9345899
-1.0019029	o_1 n	-0.5987978
-1.4362986	u_4 n	-0.2851665
-1.4362986	M_1 n	-0.2851665
-0.6355258	a_X_1 n	-0.8998278
-1.808444	a_X_2 n	-0.12813136
-0.73687345	O_1 n	-0.5196166
-0.5154501	7_X_2 n	-0.8206466
-1.7363927	a_6a n	-0.12813136
-1.1748385	7_2 n	-0.2977678
-0.79450536	a_3 n	-0.6657446
-1.5846572	M7_2 n	-0.12813136
-0.97083133	i_1 n	-0.5196166
-0.8643254	e_5a n	-0.2977678
-1.5410141	u_2 n	-0.2851665
-1.5846572	7_5a n	-0.12813136
-1.07549	i_2 n	-0.2977678
-1.1346158	7_X_5a n	-0.2977678
-0.80708355	E_1 n	-0.5987978
-0.96712464	uo_1 n	-0.2977678
-0.5659503	ie_5a n	-0.77488905
-1.19977	u_1 n	-0.2977678
-0.82265604	e_2 n	-0.2977678
-0.65386313	a_X_5a n	-0.7237365
-1.0338365	o_6a n	-0.2977678
-1.4007953	u_5a n	-0.2851665
-0.98833984	O_2 n	-0.2977678
-1.8056549	o_2 n	-0.12813136
-0.46156028	ie_2 n	-0.5987978
-0.5006498	ie_1 n	-0.77488905
-0.7216476	7_1 n	-0.7237365
-1.3441006	E_6a n	-0.12813136
-1.3571173	i_6a n	-0.2851665
-0.59597695	uo_2 n	-0.42270654
-0.7824852	E_2 n	-0.42270654
-1.0502911	o_5a n	-0.42270654
-0.50068074	O_6a n	-0.5196166
-1.8678027	M7_1 n	-0.12813136
-0.51071113	7_X_4 n	-0.42270654
-0.6392654	a_X_4 n	-0.2977678
-1.1419575	ie_4 n	-0.12813136
-1.434308	M7_5a n	-0.2851665
-0.4144103	ie_6a n	-0.6657446
-0.8828038	uo_5a n	-0.2977678
-0.30837923	7_X_6a n	-0.8206466
-0.78120244	M7_6a n	-0.2977678
-0.5995099	E_4 n	-0.2977678
-1.3763025	a_X_3 n	-0.2851665
-1.6657491	7_6a n	-0.12813136
-1.1865249	M7_4 n	-0.2851665
-1.377732	ie_3 n	-0.12813136
-1.287907	e_6a n	-0.12813136
-1.4770807	7_X_3 n	-0.12813136
-0.74347484	a_X_6a n	-0.2977678
-1.2513187	uo_6a n	-0.12813136
-1.3098166	<s> v	-1.054467
-1.4322503	| v	-0.6605536
-1.5868239	<s> tS	-0.83944684
-1.5159379	| tS	-0.6497748
-2.7843509	<s> 7_X_1	-0.4922397
-2.3979034	| 7_X_1	-0.45084703
-2.0340292	m 7_X_1	-0.2851665
-1.9538863	d 7_X_1	-0.15532053
-2.0151477	k 7_X_1	-0.15532053
-1.9521891	b 7_X_1	-0.12813136
-1.8897716	l 7_X_1	-0.2851665
-1.8477962	h 7_X_1	-0.2851665
-1.6729641	wp 7_X_1	-0.29458305
-1.8518535	t_h 7_X_1	-0.2851665
-1.982472	N 7_X_1	-0.2851665
-1.9694481	ts_ 7_X_1	-0.1744409
-2.0895383	n 7_X_1	-0.2851665
-1.9880028	v 7_X_1	-0.1744409
-1.9137762	tS 7_X_1	-0.12813136
-2.0204892	J 7_X_1	-0.1744409
-1.8282614	r 7_X_1	-0.2851665
-1.9883126	z 7_X_1	-0.21540883
-1.9684608	t 7_X_1	-0.2851665
-1.6873641	x 7_X_1	-0.2851665
-1.9530512	S 7_X_1	-0.1995895
-1.8286163	s 7_X_1	-0.2851665
-1.8986351	dZ 7_X_1	-0.2851665
-1.7116523	G 7_X_1	-0.2851665
-2.1018584	<s> o_1	-1.0990633
-1.9603753	| o_1	-0.58374256
-2.0840268	m o_1	-0.2851665
-2.0201445	d o_1	-0.1995895
-2.0824776	k o_1	-0.12813136
-2.0186112	b o_1	-0.12813136
-2.0586586	l o_1	-0.1995895
-2.029266	h o_1	-0.1744409
-2.0356834	t_h o_1	-0.1995895
-2.1803894	N o_1	-0.1744409
-1.9094204	ts_ o_1	-0.2851665
-2.1320326	n o_1	-0.2851665
-1.9051824	v o_1	-0.2851665
-1.9698197	tS o_1	-0.1744409
-1.9076279	J o_1	-0.2851665
-1.8659521	r o_1	-0.2851665
-2.1432693	t o_1	-0.15532053
-1.9323211	x o_1	-0.21540883
-1.847395	S o_1	-0.2851665
-2.017101	s o_1	-0.1995895
-2.372745	m u_4	-0.1744409
-2.2599123	k u_4	-0.1995895
-2.0394282	b u_4	-0.2851665
-2.2280347	l u_4	-0.1744409
-2.006851	h u_4	-0.2851665
-2.1246855	N u_4	-0.2851665
-2.2319865	n u_4	-0.2851665
-2.2059999	v u_4	-0.1744409
-1.9992682	J u_4	-0.2851665
-1.9528414	r u_4	-0.2851665
-1.9945855	z u_4	-0.2851665
-1.8104904	G u_4	-0.2851665
-1.9265695	o_3 Nm	-0.12813136
-0.621415	o_1 Nm	-0.9345899
-0.8245849	u_4 Nm	-0.42270654
-0.10916024	O_X_2 Nm	-0.5987978
-0.047002878	O_X_1 Nm	-0.9345899
-0.6411208	u_2 Nm	-0.6657446
-0.5365915	u_1 Nm	-0.8206466
-0.73186845	o_6a Nm	-0.5196166
-0.9999164	u_5a Nm	-0.2977678
-0.58809507	o_2 Nm	-0.7237365
-1.4158732	o_4 Nm	-0.2851665
-0.2553167	O_X_4 Nm	-0.2977678
-0.6785448	o_5a Nm	-0.7237365
-1.6970483	u_3 Nm	-0.12813136
-0.7167085	u_6a Nm	-0.42270654
-0.17611885	O_X_6a Nm	-0.42270654
-0.062156416	O_X_5a Nm	-0.8206466
-0.17611885	O_X_3 Nm	-0.42270654
-2.543717	d E_6b	-0.12813136
-2.3408546	k E_6b	-0.2851665
-2.1744199	v E_6b	-0.2851665
-3.6873255	<s> p	-0.2851665
-2.7839334	| p	-0.2851665
-0.57162416	a_X_5b p	-0.7237365
-1.2222022	E_6b p	-0.12813136
-1.680016	a_X_6b p	-0.12813136
-0.9994019	a_5b p	-0.42270654
-1.0908209	u_5b p	-0.2977678
-1.1153898	ie_6b p	-0.2851665
-0.7094551	7_X_5b p	-0.5196166
-1.3758264	i_5b p	-0.2851665
-0.3163935	7_X_6b p	-0.8206466
-0.4430314	E_5b p	-0.5987978
-1.680016	o_6b p	-0.12813136
-1.466003	M7_5b p	-0.2851665
-0.80856013	ie_5b p	-0.2977678
-0.6472194	e_5b p	-0.42270654
-1.6422274	a_6b p	-0.12813136
-0.7686016	i_6b p	-0.2977678
-0.3776068	7_6b p	-0.2977678
-1.3032757	u_6b p	-0.2851665
-1.2222022	7_5b p	-0.12813136
-0.6759276	O_5b p	-0.2977678
-0.8772711	O_6b p	-0.2851665
-0.7477444	e_6b p	-0.2851665
-1.4647008	<s> J	-0.96802795
-1.4413502	| J	-0.7425214
-1.2135051	e_1 J	-0.2977678
-0.86208904	i_5a J	-0.5196166
-0.88372743	i_1 J	-0.5987978
-0.5861764	i_2 J	-0.6657446
-0.062191065	E_X_1 J	-0.8206466
-0.9473133	i_6a J	-0.2977678
-0.069684714	E_X_5a J	-0.77488905
-0.9174243	i_3 J	-0.2977678
-0.6773218	i_4 J	-0.2977678
-1.4675767	e_6a J	-0.12813136
-0.062191065	E_X_2 J	-0.8206466
-0.069684714	E_X_3 J	-0.77488905
-0.13480058	E_X_6a J	-0.5196166
-0.9796259	e_4 J	-0.2851665
-0.29045883	E_X_4 J	-0.2851665
-3.8307297	<s> M_1	-0.2851665
-3.1796517	| M_1	-0.2851665
-2.1883395	m M_1	-0.2851665
-2.166865	b M_1	-0.1744409
-2.2028832	l M_1	-0.1995895
-1.9911315	h M_1	-0.2851665
-2.172118	t_h M_1	-0.12813136
-2.011478	ts_ M_1	-0.2851665
-1.8688598	tS M_1	-0.2851665
-2.200417	J M_1	-0.12813136
-2.1181564	t M_1	-0.2851665
-2.1366463	S M_1	-0.12813136
-2.1510828	s M_1	-0.12813136
-3.158208	<s> a_X_1	-0.22180198
-1.9808627	| a_X_1	-1.075919
-2.1546538	m a_X_1	-0.1995895
-1.9695275	d a_X_1	-0.1744409
-1.9394379	k a_X_1	-0.2851665
-1.9678668	b a_X_1	-0.1744409
-1.9018205	l a_X_1	-0.2851665
-1.9814342	h a_X_1	-0.1744409
-1.6778064	wp a_X_1	-0.1744409
-1.9881984	t_h a_X_1	-0.1744409
-2.1350214	N a_X_1	-0.1744409
-1.8720918	ts_ a_X_1	-0.2851665
-2.2418134	n a_X_1	-0.1744409
-1.8711424	v a_X_1	-0.2851665
-1.9271237	tS a_X_1	-0.1744409
-1.8777015	J a_X_1	-0.2851665
-2.0023968	r a_X_1	-0.2851665
-1.8615447	z a_X_1	-0.2851665
-2.0944695	t a_X_1	-0.12813136
-1.6948966	x a_X_1	-0.2851665
-1.9668804	S a_X_1	-0.1995895
-1.9703069	s a_X_1	-0.1995895
-1.7160501	dZ a_X_1	-0.2851665
-1.9243321	<s> r	-0.7697805
-1.4836098	| r	-0.5249666
-2.2599711	m a_X_2	-0.1744409
-2.077449	d a_X_2	-0.2851665
-2.0261312	k a_X_2	-0.2851665
-1.9542392	b a_X_2	-0.2851665
-1.9821109	l a_X_2	-0.2851665
-2.0830257	h a_X_2	-0.1744409
-2.056792	wp a_X_2	-0.2851665
-2.089005	t_h a_X_2	-0.12813136
-2.2310555	N a_X_2	-0.12813136
-1.9502616	ts_ a_X_2	-0.2851665
-2.1668758	n a_X_2	-0.2851665
-1.9421191	v a_X_2	-0.2851665
-1.93977	J a_X_2	-0.2851665
-2.0918763	r a_X_2	-0.1744409
-2.0989146	z a_X_2	-0.2851665
-2.0575895	t a_X_2	-0.2851665
-1.7657458	dZ a_X_2	-0.2851665
-1.9243321	<s> z	-0.54241383
-1.4914691	| z	-0.49205965
-2.4664612	k O_X_2	-0.12813136
-2.4203234	l O_X_2	-0.12813136
-2.1131346	v O_X_2	-0.2851665
-2.031736	r O_X_2	-0.2851665
-2.363133	z O_X_2	-0.12813136
-1.7608844	f O_X_2	-0.2851665
-2.3861988	k M_3	-0.1744409
-2.076122	h M_3	-0.2851665
-2.0762808	t_h M_3	-0.2851665
-2.18474	N M_3	-0.2851665
-2.208102	t M_3	-0.2851665
-2.2553504	S M_3	-0.12813136
-2.280757	s M_3	-0.12813136
-1.849158	G M_3	-0.2851665
-0.79169196	a_2 w	-0.8998278
-0.76359195	a_5a w	-0.8620392
-1.4010923	a_4 w	-0.2851665
-0.6781336	E_5a w	-0.5196166
-1.1929528	e_1 w	-0.2977678
-0.75127566	i_5a w	-0.5987978
-0.81933475	a_1 w	-0.9345899
-0.7710387	E_3 w	-0.42270654
-0.6358508	7_X_1 w	-0.9345899
-1.0123993	M_1 w	-0.2977678
-0.83987117	a_X_1 w	-0.7237365
-0.99919045	a_X_2 w	-0.42270654
-1.1797544	M_3 w	-0.2851665
-1.0187236	7_X_2 w	-0.42270654
-0.84667516	a_6a w	-0.5196166
-1.3049164	a_3 w	-0.2977678
-1.7558845	i_1 w	-0.2851665
-1.3465512	e_5a w	-0.2851665
-0.50767064	7_X_5a w	-0.77488905
-0.60109234	E_1 w	-0.77488905
-0.6993009	ie_5a w	-0.6657446
-0.8363081	e_2 w	-0.2977678
-1.2371564	a_X_5a w	-0.2977678
-0.7037549	ie_2 w	-0.42270654
-0.8175597	ie_1 w	-0.5196166
-1.0782257	E_6a w	-0.2851665
-0.7368635	i_6a w	-0.42270654
-1.0782257	M_6a w	-0.2851665
-0.6564946	E_2 w	-0.5196166
-1.670123	M7_1 w	-0.2851665
-1.1868504	7_X_4 w	-0.2851665
-0.8487328	ie_4 w	-0.2851665
-1.7708757	M7_5a w	-0.12813136
-0.5011031	ie_6a w	-0.5987978
-1.0056022	7_X_6a w	-0.2977678
-1.1434402	i_4 w	-0.2851665
-1.2539941	M7_6a w	-0.2851665
-1.0854483	E_4 w	-0.2851665
-0.51197916	ie_3 w	-0.42270654
-1.2817429	M_5a w	-0.2851665
-1.2255119	7_X_3 w	-0.2851665
-2.8452451	<s> O_X_1	-0.8206466
-2.7155464	| O_X_1	-0.42270654
-2.1883395	m O_X_1	-0.2851665
-2.0953302	k O_X_1	-0.2851665
-2.045285	l O_X_1	-0.2851665
-1.9929807	t_h O_X_1	-0.2851665
-2.21816	n O_X_1	-0.2851665
-2.089605	tS O_X_1	-0.12813136
-1.9409809	r O_X_1	-0.2851665
-1.9806595	z O_X_1	-0.2851665
-1.9293705	S O_X_1	-0.2851665
-1.9654552	s O_X_1	-0.2851665
-1.7066598	f O_X_1	-0.2851665
-3.2965586	| O_1	-0.12813136
-2.2083116	k O_1	-0.1995895
-2.0286093	l O_1	-0.2851665
-1.9759614	h O_1	-0.2851665
-1.9780797	t_h O_1	-0.2851665
-2.09751	N O_1	-0.2851665
-2.1522315	ts_ O_1	-0.12813136
-2.20476	n O_1	-0.2851665
-2.1612022	v O_1	-0.1995895
-2.1806095	J O_1	-0.1744409
-1.9671662	z O_1	-0.2851665
-2.1022048	t O_1	-0.2851665
-1.9166691	S O_1	-0.2851665
-1.9510732	s O_1	-0.2851665
-3.127642	| 7_X_2	-0.2851665
-2.280304	m 7_X_2	-0.12813136
-2.0983636	d 7_X_2	-0.15532053
-2.042425	k 7_X_2	-0.2851665
-2.0970592	b 7_X_2	-0.12813136
-2.1351411	l 7_X_2	-0.1744409
-1.9471238	h 7_X_2	-0.2851665
-2.252599	wp 7_X_2	-0.12813136
-2.10834	t_h 7_X_2	-0.15532053
-2.0719354	N 7_X_2	-0.2851665
-1.9551642	v 7_X_2	-0.2851665
-2.034182	tS 7_X_2	-0.1744409
-1.9413756	z 7_X_2	-0.2851665
-2.0719578	t 7_X_2	-0.2851665
-1.9521353	f 7_X_2	-0.12813136
-2.0139275	G 7_X_2	-0.1744409
-2.2629132	| a_6a	-0.8206466
-2.0206735	d a_6a	-0.2851665
-2.166865	b a_6a	-0.1744409
-2.2028832	l a_6a	-0.1744409
-2.1669395	h a_6a	-0.1744409
-1.3283987	wp a_6a	-0.147377
-2.3093624	N a_6a	-0.1744409
-2.011478	ts_ a_6a	-0.2851665
-1.9968289	v a_6a	-0.2851665
-1.9409809	r a_6a	-0.2851665
-2.1776104	z a_6a	-0.2851665
-2.2844224	t a_6a	-0.21540883
-1.8013383	G a_6a	-0.2851665
-3.0777318	<s> 7_2	-0.5987978
-3.0667608	| 7_2	-0.2851665
-2.2041278	m 7_2	-0.12813136
-1.9104934	d 7_2	-0.2851665
-1.9806249	k 7_2	-0.2851665
-2.0186112	b 7_2	-0.12813136
-1.9401128	l 7_2	-0.2851665
-2.0356834	t_h 7_2	-0.1744409
-2.0249043	N 7_2	-0.2851665
-2.033644	ts_ 7_2	-0.1995895
-2.0492587	v 7_2	-0.1995895
-1.9698197	tS 7_2	-0.1744409
-2.07766	J 7_2	-0.12813136
-1.8659521	r 7_2	-0.2851665
-1.8939791	z 7_2	-0.2851665
-2.0171335	t 7_2	-0.2851665
-1.847395	S 7_2	-0.2851665
-1.8735449	s 7_2	-0.2851665
-1.9491246	dZ 7_2	-0.12813136
-1.7421656	G 7_2	-0.2851665
-3.0812	| a_3	-0.2851665
-2.0974803	m a_3	-0.2851665
-1.9246228	d a_3	-0.2851665
-2.1010776	k a_3	-0.12813136
-2.036935	b a_3	-0.21540883
-1.9536659	l a_3	-0.2851665
-1.907168	h a_3	-0.2851665
-1.409772	wp a_3	-0.25090778
-2.05274	t_h a_3	-0.1995895
-1.9226118	ts_ a_3	-0.2851665
-2.1433392	n a_3	-0.2851665
-1.917149	v a_3	-0.2851665
-1.8029981	tS a_3	-0.2851665
-1.875909	r a_3	-0.2851665
-2.1608357	t a_3	-0.1995895
-1.8582002	S a_3	-0.2851665
-1.8855429	s a_3	-0.2851665
-1.9152957	f a_3	-0.1995895
-1.9627205	dZ a_3	-0.21540883
-2.4903362	m a_X_6b	-0.1744409
-2.3163853	d a_X_6b	-0.12813136
-2.3861988	k a_X_6b	-0.12813136
-2.1768334	wp a_X_6b	-0.2851665
-2.1025736	ts_ a_X_6b	-0.2851665
-2.0535347	J a_X_6b	-0.2851665
-2.1496816	dZ a_X_6b	-0.1744409
-2.1518981	G a_X_6b	-0.1744409
-1.0411751	<s> t	-1.1703277
-1.4232271	| t	-0.6482168
-0.5105383	a_X_5b t	-0.77488905
-1.2025031	E_6b t	-0.12813136
-0.4049431	a_X_6b t	-0.5987978
-0.3625781	a_5b t	-0.9345899
-0.49509764	u_5b t	-0.7237365
-0.47372144	o_5b t	-0.5196166
-0.7454546	M_5b t	-0.42270654
-0.27808118	ie_6b t	-0.5196166
-0.17463343	uo_6b t	-0.5987978
-0.24842845	7_X_5b t	-0.8998278
-0.28767127	i_5b t	-0.7237365
-0.4294906	7_X_6b t	-0.7237365
-0.47245336	M7_6b t	-0.42270654
-0.35841277	E_5b t	-0.6657446
-0.4049431	o_6b t	-0.5987978
-0.63556105	M7_5b t	-0.5196166
-0.36715454	ie_5b t	-0.5987978
-0.5090857	e_5b t	-0.5196166
-0.47047403	a_6b t	-0.5196166
-0.17463343	uo_5b t	-0.5987978
-0.5660431	i_6b t	-0.42270654
-0.8726579	7_6b t	-0.2851665
-0.36901355	u_6b t	-0.5987978
-1.1736879	M_6b t	-0.2851665
-1.2025031	7_5b t	-0.12813136
-0.33541876	O_5b t	-0.5196166
-0.37614158	O_6b t	-0.2977678
-1.113965	e_6b t	-0.12813136
-3.8307297	<s> M7_2	-0.2851665
-2.1883395	m M7_2	-0.2851665
-2.1679285	d M7_2	-0.1744409
-2.0953302	k M7_2	-0.2851665
-2.2028832	l M7_2	-0.12813136
-1.9929807	t_h M7_2	-0.2851665
-2.3093624	N M7_2	-0.12813136
-2.21816	n M7_2	-0.2851665
-2.1830237	v M7_2	-0.12813136
-2.089605	tS M7_2	-0.12813136
-1.9866985	J M7_2	-0.2851665
-2.1181564	t M7_2	-0.2851665
-1.802346	dZ M7_2	-0.2851665
-1.8317202	<s> x	-0.7234814
-1.5330516	| x	-0.6571226
-2.404035	| i_1	-0.35668007
-2.170527	m i_1	-0.1995895
-1.985753	d i_1	-0.12813136
-1.9527376	k i_1	-0.2851665
-1.8830514	b i_1	-0.2851665
-2.0249388	l i_1	-0.2851665
-1.520032	wp i_1	-0.42270654
-1.8743329	t_h i_1	-0.2851665
-2.1496239	N i_1	-0.12813136
-2.000361	ts_ i_1	-0.12813136
-2.110266	n i_1	-0.2851665
-2.0175517	v i_1	-0.12813136
-1.6830723	p i_1	-0.2851665
-2.0481346	J i_1	-0.12813136
-1.846698	r i_1	-0.2851665
-1.8720893	z i_1	-0.2851665
-2.1101346	t i_1	-0.1995895
-1.9068316	x i_1	-0.12813136
-1.826559	S i_1	-0.2851665
-1.9853516	s i_1	-0.1995895
-1.8813382	f i_1	-0.12813136
-1.7266409	G i_1	-0.2851665
-2.2234054	m e_5a	-0.2851665
-2.2213845	d e_5a	-0.12813136
-2.1345584	k e_5a	-0.2851665
-2.220535	b e_5a	-0.1744409
-2.2205167	t_h e_5a	-0.12813136
-2.045659	ts_ e_5a	-0.2851665
-2.4615474	n e_5a	-0.1744409
-2.0089731	z e_5a	-0.2851665
-2.1519337	t e_5a	-0.2851665
-1.79724	x e_5a	-0.2851665
-1.8198394	G e_5a	-0.2851665
-1.5841955	<s> S	-0.86770105
-1.4683056	| S	-0.60976297
-1.7961494	<s> s	-0.5633358
-1.4994732	| s	-0.5690676
-3.9420085	<s> u_2	-0.12813136
-2.280304	m u_2	-0.1744409
-2.1621957	k u_2	-0.1744409
-1.9699924	b u_2	-0.2851665
-1.997064	l u_2	-0.2851665
-2.1025336	h u_2	-0.12813136
-1.9497287	t_h u_2	-0.2851665
-2.0719354	N u_2	-0.2851665
-1.9647759	ts_ u_2	-0.2851665
-1.9551642	v u_2	-0.2851665
-2.1172924	z u_2	-0.12813136
-2.0719578	t u_2	-0.2851665
-1.8923291	S u_2	-0.2851665
-1.9236636	s u_2	-0.2851665
-1.6853446	f u_2	-0.2851665
-1.7749857	G u_2	-0.2851665
-3.1796517	| 7_5a	-0.2851665
-2.3477256	m 7_5a	-0.1744409
-2.021001	b 7_5a	-0.2851665
-2.045285	l 7_5a	-0.2851665
-1.9911315	h 7_5a	-0.2851665
-2.1108851	N 7_5a	-0.2851665
-2.011478	ts_ 7_5a	-0.2851665
-1.9968289	v 7_5a	-0.2851665
-2.200417	J 7_5a	-0.12813136
-2.2844224	t 7_5a	-0.1744409
-1.9293705	S 7_5a	-0.2851665
-1.9654552	s 7_5a	-0.2851665
-2.0546682	dZ 7_5a	-0.12813136
-2.3016357	m i_2	-0.1744409
-1.9862417	d i_2	-0.2851665
-2.1846418	k i_2	-0.12813136
-2.1191041	b i_2	-0.12813136
-2.1229591	h i_2	-0.1744409
-2.2712872	wp i_2	-0.12813136
-2.1285763	t_h i_2	-0.12813136
-2.0845346	N i_2	-0.2851665
-1.9797921	ts_ i_2	-0.2851665
-2.1404247	v i_2	-0.12813136
-1.8457781	tS i_2	-0.2851665
-2.1616662	J i_2	-0.12813136
-1.9181896	r i_2	-0.2851665
-2.2392051	t i_2	-0.12813136
-1.7836604	dZ i_2	-0.2851665
-3.1783688	<s> 7_X_5a	-0.39149305
-2.0407486	| 7_X_5a	-0.52886075
-2.2599711	m 7_X_5a	-0.12813136
-2.077449	d 7_X_5a	-0.12813136
-2.1147213	l 7_X_5a	-0.1744409
-2.2346818	wp 7_X_5a	-0.12813136
-2.089005	t_h 7_X_5a	-0.12813136
-1.9502616	ts_ 7_X_5a	-0.2851665
-2.1668758	n 7_X_5a	-0.2851665
-1.9290328	z 7_X_5a	-0.2851665
-2.0575895	t 7_X_5a	-0.2851665
-1.7430606	x 7_X_5a	-0.2851665
-1.8806523	S 7_X_5a	-0.2851665
-2.069553	s 7_X_5a	-0.12813136
-1.6784658	f 7_X_5a	-0.2851665
-1.7657458	dZ 7_X_5a	-0.2851665
-1.999398	G 7_X_5a	-0.12813136
-1.9952518	<s> E_1	-1.3357453
-1.9160259	| E_1	-1.1428659
-2.0840268	m E_1	-0.2851665
-1.9104934	d E_1	-0.2851665
-1.9806249	k E_1	-0.2851665
-1.9101429	b E_1	-0.2851665
-1.9401128	l E_1	-0.2851665
-1.8946265	h E_1	-0.2851665
-1.6926655	wp E_1	-0.1744409
-2.0356834	t_h E_1	-0.12813136
-2.1803894	N E_1	-0.12813136
-2.033644	ts_ E_1	-0.12813136
-2.0492587	v E_1	-0.1995895
-1.9698197	tS E_1	-0.1744409
-1.8659521	r E_1	-0.2851665
-1.8939791	z E_1	-0.2851665
-2.0171335	t E_1	-0.2851665
-1.9323211	x E_1	-0.12813136
-1.847395	S E_1	-0.2851665
-2.017101	s E_1	-0.12813136
-3.8307297	<s> uo_1	-0.2851665
-2.1883395	m uo_1	-0.2851665
-2.0206735	d uo_1	-0.2851665
-2.0953302	k uo_1	-0.2851665
-2.021001	b uo_1	-0.2851665
-2.045285	l uo_1	-0.2851665
-1.9929807	t_h uo_1	-0.2851665
-2.011478	ts_ uo_1	-0.2851665
-2.21816	n uo_1	-0.2851665
-2.1830237	v uo_1	-0.1744409
-2.1181564	t uo_1	-0.2851665
-1.7784191	x uo_1	-0.2851665
-1.9654552	s uo_1	-0.2851665
-2.6659586	<s> f	-0.2737639
-1.786508	| f	-0.48993433
-2.5669801	| a_5b	-0.2977678
-2.0840268	m a_5b	-0.2851665
-2.0201445	d a_5b	-0.12813136
-2.0824776	k a_5b	-0.1744409
-2.0186112	b a_5b	-0.1744409
-2.0586586	l a_5b	-0.1744409
-1.8946265	h a_5b	-0.2851665
-1.5268575	wp a_5b	-0.12813136
-1.8980397	t_h a_5b	-0.2851665
-2.0249043	N a_5b	-0.2851665
-2.1320326	n a_5b	-0.2851665
-1.9051824	v a_5b	-0.2851665
-1.8659521	r a_5b	-0.2851665
-1.8939791	z a_5b	-0.2851665
-2.0171335	t a_5b	-0.2851665
-1.7183112	x a_5b	-0.2851665
-1.847395	S a_5b	-0.2851665
-1.8735449	s a_5b	-0.2851665
-1.6584601	f a_5b	-0.2851665
-1.7401876	dZ a_5b	-0.2851665
-2.1192393	l M_4	-0.2851665
-2.0582936	t_h M_4	-0.2851665
-2.16893	N M_4	-0.2851665
-2.283967	ts_ M_4	-0.12813136
-2.2763212	n M_4	-0.2851665
-2.0594378	v M_4	-0.2851665
-2.2901437	J M_4	-0.12813136
-2.0392618	z M_4	-0.2851665
-1.8423169	dZ M_4	-0.2851665
-3.9038215	<s> ie_5a	-0.12813136
-2.4890313	| ie_5a	-0.37186456
-2.111364	m ie_5a	-0.2851665
-1.9392275	d ie_5a	-0.2851665
-2.12051	k ie_5a	-0.1744409
-1.9390376	b ie_5a	-0.2851665
-1.9676555	l ie_5a	-0.2851665
-1.9200824	h ie_5a	-0.2851665
-2.0452924	wp ie_5a	-0.2851665
-1.9231156	t_h ie_5a	-0.2851665
-2.0477834	N ie_5a	-0.2851665
-2.0696912	ts_ ie_5a	-0.1995895
-1.8860996	r ie_5a	-0.2851665
-1.9170312	z ie_5a	-0.2851665
-2.1791425	t ie_5a	-0.1744409
-1.9594002	x ie_5a	-0.1744409
-1.9272317	f ie_5a	-0.12813136
-1.976756	dZ ie_5a	-0.12813136
-2.8226311	| u_1	-0.1744409
-2.0974803	m u_1	-0.2851665
-1.9246228	d u_1	-0.2851665
-2.1010776	k u_1	-0.1744409
-1.9243499	b u_1	-0.2851665
-1.9536659	l u_1	-0.2851665
-1.907168	h u_1	-0.2851665
-2.05274	t_h u_1	-0.12813136
-2.0361931	N u_1	-0.2851665
-1.9226118	ts_ u_1	-0.2851665
-1.917149	v u_1	-0.2851665
-1.875909	r u_1	-0.2851665
-1.9053521	z u_1	-0.2851665
-2.0302045	t u_1	-0.2851665
-1.9456496	x u_1	-0.12813136
-1.8582002	S u_1	-0.2851665
-1.8855429	s u_1	-0.2851665
-1.6650269	f u_1	-0.2851665
-1.748541	dZ u_1	-0.2851665
-2.500445	| u_5b	-0.5987978
-2.1558948	m u_5b	-0.2851665
-1.9862417	d u_5b	-0.2851665
-2.1846418	k u_5b	-0.12813136
-2.1191041	b u_5b	-0.2851665
-2.156569	l u_5b	-0.12813136
-1.9613034	h u_5b	-0.2851665
-1.9636729	t_h u_5b	-0.2851665
-2.1300797	ts_ u_5b	-0.1744409
-1.9686131	v u_5b	-0.2851665
-1.6961706	p u_5b	-0.2851665
-1.9181896	r u_5b	-0.2851665
-1.9371521	s u_5b	-0.2851665
-1.692334	f u_5b	-0.2851665
-1.7836604	dZ u_5b	-0.2851665
-2.7998965	<s> M_2	-0.8620392
-2.8741372	| M_2	-0.1744409
-2.3477256	m M_2	-0.12813136
-2.1679285	d M_2	-0.12813136
-2.021001	b M_2	-0.2851665
-2.1108851	N M_2	-0.2851665
-2.011478	ts_ M_2	-0.2851665
-1.8688598	tS M_2	-0.2851665
-2.163752	r M_2	-0.12813136
-2.1776104	z M_2	-0.12813136
-2.2844224	t M_2	-0.1744409
-1.9293705	S M_2	-0.2851665
-2.1510828	s M_2	-0.12813136
-2.3033774	m e_2	-0.2851665
-2.1441839	d e_2	-0.2851665
-2.145509	b e_2	-0.2851665
-2.1615467	l e_2	-0.2851665
-2.0953152	h e_2	-0.2851665
-2.5691876	n e_2	-0.2851665
-2.3436575	v e_2	-0.12813136
-2.502884	<s> E_X_1	-1.1428659
-2.079919	| E_X_1	-0.9967378
-2.1555865	k E_X_1	-0.2851665
-2.2831802	l E_X_1	-0.12813136
-2.1471446	wp E_X_1	-0.2851665
-2.0410216	t_h E_X_1	-0.2851665
-2.2610345	n E_X_1	-0.2851665
-2.1531498	tS E_X_1	-0.12813136
-2.2659152	J E_X_1	-0.12813136
-2.2241642	s E_X_1	-0.12813136
-2.0974803	m a_X_5a	-0.2851665
-1.9246228	d a_X_5a	-0.2851665
-1.9952701	k a_X_5a	-0.2851665
-1.9243499	b a_X_5a	-0.2851665
-2.0765538	l a_X_5a	-0.1744409
-2.034089	wp a_X_5a	-0.2851665
-1.9103967	t_h a_X_5a	-0.2851665
-2.0361931	N a_X_5a	-0.2851665
-2.0512938	ts_ a_X_5a	-0.1995895
-2.3034725	n a_X_5a	-0.1744409
-1.917149	v a_X_5a	-0.2851665
-1.8029981	tS a_X_5a	-0.2851665
-1.9180799	J a_X_5a	-0.2851665
-1.875909	r a_X_5a	-0.2851665
-1.9053521	z a_X_5a	-0.2851665
-2.0302045	t a_X_5a	-0.2851665
-1.8582002	S a_X_5a	-0.2851665
-1.8855429	s a_X_5a	-0.2851665
-1.750141	G a_X_5a	-0.2851665
-2.2508013	d o_5b	-0.1744409
-2.3184814	k o_5b	-0.12813136
-2.099537	l o_5b	-0.2851665
-2.0401068	h o_5b	-0.2851665
-2.1536756	N o_5b	-0.2851665
-2.0638142	ts_ o_5b	-0.2851665
-2.2610345	n o_5b	-0.2851665
-2.0255544	J o_5b	-0.2851665
-2.1698613	t o_5b	-0.2851665
-1.829394	G o_5b	-0.2851665
-0.38438192	u_5b kp	-0.8206466
-0.3727938	o_5b kp	-0.5987978
-0.070115946	O_X_6b kp	-0.77488905
-0.65303344	o_6b kp	-0.42270654
-0.092419915	O_X_5b kp	-0.6657446
-0.6158944	u_6b kp	-0.42270654
-2.372745	m o_6a	-0.2851665
-2.1938345	d o_6a	-0.1995895
-2.1928716	b o_6a	-0.12813136
-2.0626268	l o_6a	-0.2851665
-2.1907213	h o_6a	-0.1744409
-2.1246855	N o_6a	-0.2851665
-2.2319865	n o_6a	-0.2851665
-2.0116556	v o_6a	-0.2851665
-1.8808775	tS o_6a	-0.2851665
-1.9528414	r o_6a	-0.2851665
-1.9945855	z o_6a	-0.2851665
-2.3089285	t o_6a	-0.12813136
-2.2055187	m u_5a	-0.2851665
-2.1938345	d u_5a	-0.12813136
-2.2599123	k u_5a	-0.21540883
-2.0626268	l u_5a	-0.2851665
-2.006851	h u_5a	-0.2851665
-2.0084114	t_h u_5a	-0.2851665
-2.2002428	ts_ u_5a	-0.12813136
-2.2319865	n u_5a	-0.2851665
-2.3089285	t u_5a	-0.1744409
-1.9803299	s u_5a	-0.2851665
-1.7140038	f u_5a	-0.2851665
-1.8104904	G u_5a	-0.2851665
-2.1340084	<s> dZ	-0.5334568
-1.6091704	| dZ	-0.5513761
-2.2615533	m O_X_6b	-0.2851665
-2.2823565	d O_X_6b	-0.12813136
-2.0999238	b O_X_6b	-0.2851665
-2.2710464	h O_X_6b	-0.12813136
-2.16893	N O_X_6b	-0.2851665
-2.0827618	ts_ O_X_6b	-0.2851665
-2.0392618	z O_X_6b	-0.2851665
-1.9842527	S O_X_6b	-0.2851665
-2.028279	s O_X_6b	-0.2851665
-2.1718142	m O_2	-0.2851665
-2.0031164	d O_2	-0.2851665
-2.2083116	k O_2	-0.15532053
-2.1423285	b O_2	-0.12813136
-2.0286093	l O_2	-0.2851665
-2.1443927	h O_2	-0.1744409
-1.9780797	t_h O_2	-0.2851665
-2.20476	n O_2	-0.2851665
-1.982492	v O_2	-0.2851665
-1.8571656	tS O_2	-0.2851665
-1.9744825	J O_2	-0.2851665
-1.9671662	z O_2	-0.2851665
-2.1022048	t O_2	-0.2851665
-1.9166691	S O_2	-0.2851665
-2.7970283	<s> o_2	-0.73391575
-2.3016357	m o_2	-0.1995895
-2.1203368	d o_2	-0.1744409
-2.1191041	b o_2	-0.12813136
-2.0125504	l o_2	-0.2851665
-2.1229591	h o_2	-0.21540883
-2.2684462	N o_2	-0.12813136
-1.9797921	ts_ o_2	-0.2851665
-2.3753572	n o_2	-0.12813136
-1.9686131	v o_2	-0.2851665
-1.8457781	tS o_2	-0.2851665
-2.126329	r o_2	-0.1744409
-2.1364825	z o_2	-0.1744409
-2.086818	t o_2	-0.2851665
-1.692334	f o_2	-0.2851665
-3.1616142	| M_5b	-0.2851665
-2.1718142	m M_5b	-0.2851665
-2.0031164	d M_5b	-0.2851665
-2.1423285	b M_5b	-0.12813136
-1.9759614	h M_5b	-0.2851665
-1.9780797	t_h M_5b	-0.2851665
-1.9953462	ts_ M_5b	-0.2851665
-2.20476	n M_5b	-0.2851665
-1.982492	v M_5b	-0.2851665
-1.9294357	r M_5b	-0.2851665
-1.9671662	z M_5b	-0.2851665
-2.1022048	t M_5b	-0.2851665
-1.9166691	S M_5b	-0.2851665
-1.9510732	s M_5b	-0.2851665
-2.170231	b ie_6b	-0.2851665
-2.1843534	l ie_6b	-0.2851665
-2.2087016	wp ie_6b	-0.2851665
-2.218199	N ie_6b	-0.2851665
-2.377324	v ie_6b	-0.12813136
-2.0890667	z ie_6b	-0.2851665
-2.2055187	m ie_2	-0.2851665
-2.1938345	d ie_2	-0.1744409
-2.1145017	k ie_2	-0.2851665
-2.2280347	l ie_2	-0.1744409
-2.006851	h ie_2	-0.2851665
-1.5552851	wp ie_2	-0.42270654
-2.2002428	ts_ ie_2	-0.12813136
-2.438344	n ie_2	-0.12813136
-2.2211711	J ie_2	-0.12813136
-1.9945855	z ie_2	-0.2851665
-2.1347167	t ie_2	-0.2851665
-1.8119991	dZ ie_2	-0.2851665
-2.794179	<s> ie_1	-0.8620392
-2.100916	| ie_1	-0.7237365
-1.9543403	d ie_1	-0.2851665
-2.0261312	k ie_1	-0.2851665
-1.9821109	l ie_1	-0.2851665
-1.9333928	h ie_1	-0.2851665
-1.708051	wp ie_1	-0.2977678
-2.089005	t_h ie_1	-0.12813136
-2.0596917	N ie_1	-0.2851665
-1.9502616	ts_ ie_1	-0.2851665
-1.9421191	v ie_1	-0.2851665
-1.93977	J ie_1	-0.2851665
-2.0918763	r ie_1	-0.12813136
-1.9290328	z ie_1	-0.2851665
-2.0575895	t ie_1	-0.2851665
-2.0606163	S ie_1	-0.12813136
-2.069553	s ie_1	-0.1744409
-2.835766	<s> 7_1	-0.5196166
-2.0978541	| 7_1	-0.69892323
-2.0974803	m 7_1	-0.2851665
-2.0384185	d 7_1	-0.1995895
-2.1010776	k 7_1	-0.1995895
-1.9243499	b 7_1	-0.2851665
-1.9536659	l 7_1	-0.2851665
-1.907168	h 7_1	-0.2851665
-2.034089	wp 7_1	-0.2851665
-2.05274	t_h 7_1	-0.15532053
-1.9226118	ts_ 7_1	-0.2851665
-2.3034725	n 7_1	-0.12813136
-1.8029981	tS 7_1	-0.2851665
-1.875909	r 7_1	-0.2851665
-1.9053521	z 7_1	-0.2851665
-2.0302045	t 7_1	-0.2851665
-1.8582002	S 7_1	-0.2851665
-1.8855429	s 7_1	-0.2851665
-1.6650269	f 7_1	-0.2851665
-2.2222257	d uo_3	-0.2851665
-2.5649981	k uo_3	-0.12813136
-2.488454	b uo_3	-0.12813136
-2.2964606	t uo_3	-0.2851665
-2.3992944	m o_4	-0.12813136
-2.2213845	d o_4	-0.12813136
-2.1345584	k o_4	-0.2851665
-2.220535	b o_4	-0.1744409
-2.08069	l o_4	-0.2851665
-2.045659	ts_ o_4	-0.2851665
-2.0270061	v o_4	-0.2851665
-1.9650348	r o_4	-0.2851665
-2.0089731	z o_4	-0.2851665
-1.8218718	dZ o_4	-0.2851665
-2.0949054	G o_4	-0.12813136
-2.4244785	k uo_6b	-0.12813136
-2.145509	b uo_6b	-0.2851665
-2.3503509	ts_ uo_6b	-0.12813136
-2.0944881	v uo_6b	-0.2851665
-2.017551	r uo_6b	-0.2851665
-2.0718226	z uo_6b	-0.2851665
-2.228564	t uo_6b	-0.2851665
-2.5637274	m E_6a	-0.12813136
-2.2516513	k E_6a	-0.2851665
-2.1131346	v E_6a	-0.2851665
-2.0834427	J E_6a	-0.2851665
-2.0890667	z E_6a	-0.2851665
-2.0305061	S E_6a	-0.2851665
-3.96244	<s> 7_X_5b	-0.12813136
-2.7030754	| 7_X_5b	-0.42270654
-2.1558948	m 7_X_5b	-0.2851665
-1.9862417	d 7_X_5b	-0.2851665
-2.1846418	k 7_X_5b	-0.1995895
-2.1191041	b 7_X_5b	-0.12813136
-2.0125504	l 7_X_5b	-0.2851665
-2.0807474	wp 7_X_5b	-0.2851665
-1.9636729	t_h 7_X_5b	-0.2851665
-1.9686131	v 7_X_5b	-0.2851665
-1.9626007	J 7_X_5b	-0.2851665
-2.126329	r 7_X_5b	-0.12813136
-1.9540795	z 7_X_5b	-0.2851665
-2.2392051	t 7_X_5b	-0.1744409
-1.7836604	dZ 7_X_5b	-0.2851665
-2.6144104	| i_5b	-0.39149305
-2.2420607	m i_5b	-0.2851665
-2.0401068	h i_5b	-0.2851665
-2.1471446	wp i_5b	-0.2851665
-2.0410216	t_h i_5b	-0.2851665
-2.0638142	ts_ i_5b	-0.2851665
-1.9775805	r i_5b	-0.2851665
-2.0238535	z i_5b	-0.2851665
-2.1698613	t i_5b	-0.2851665
-2.0117009	s i_5b	-0.2851665
-2.1405382	m 7_X_6b	-0.2851665
-1.9699981	d 7_X_6b	-0.2851665
-2.042425	k 7_X_6b	-0.2851665
-2.1351411	l 7_X_6b	-0.12813136
-2.252599	wp 7_X_6b	-0.12813136
-2.10834	t_h 7_X_6b	-0.12813136
-2.0719354	N 7_X_6b	-0.2851665
-1.9647759	ts_ 7_X_6b	-0.2851665
-2.1791403	n 7_X_6b	-0.2851665
-1.9551642	v 7_X_6b	-0.2851665
-1.9510354	J 7_X_6b	-0.2851665
-1.9072273	r 7_X_6b	-0.2851665
-2.1172924	z 7_X_6b	-0.12813136
-2.2182477	t 7_X_6b	-0.12813136
-1.7746108	dZ 7_X_6b	-0.2851665
-1.7749857	G 7_X_6b	-0.2851665
-2.3240695	m O_3	-0.1744409
-2.143481	d O_3	-0.12813136
-2.2083116	k O_3	-0.12813136
-2.1423285	b O_3	-0.12813136
-1.9759614	h O_3	-0.2851665
-2.1498017	t_h O_3	-0.12813136
-2.2884226	N O_3	-0.12813136
-2.20476	n O_3	-0.2851665
-1.982492	v O_3	-0.2851665
-2.1806095	J O_3	-0.12813136
-1.9294357	r O_3	-0.2851665
-2.2612257	t O_3	-0.12813136
-1.769306	x O_3	-0.2851665
-1.7929027	dZ O_3	-0.2851665
-2.3033774	m M7_6b	-0.2851665
-2.3533087	d M7_6b	-0.12813136
-2.1615467	l M7_6b	-0.2851665
-2.2011473	N M7_6b	-0.2851665
-2.0944881	v M7_6b	-0.2851665
-1.9465264	tS M7_6b	-0.2851665
-2.228564	t M7_6b	-0.2851665
-2.2055187	m i_6a	-0.2851665
-2.0389702	d i_6a	-0.2851665
-2.1928716	b i_6a	-0.12813136
-2.0084114	t_h i_6a	-0.2851665
-2.1246855	N i_6a	-0.2851665
-2.2002428	ts_ i_6a	-0.12813136
-2.2319865	n i_6a	-0.2851665
-2.2059999	v i_6a	-0.12813136
-1.8808775	tS i_6a	-0.2851665
-1.9528414	r i_6a	-0.2851665
-1.9945855	z i_6a	-0.2851665
-2.1347167	t i_6a	-0.2851665
-2.3408546	k O_X_4	-0.2851665
-2.1794434	t_h O_X_4	-0.2851665
-2.0773022	r O_X_4	-0.2851665
-2.343494	n M_6a	-0.2851665
-2.107024	z M_6a	-0.2851665
-2.5353966	t M_6a	-0.1744409
-2.346114	S M_6a	-0.12813136
-2.1017532	s M_6a	-0.2851665
-2.9122152	| E_X_5a	-0.2977678
-2.098997	d E_X_5a	-0.2851665
-2.3510215	k E_X_5a	-0.12813136
-2.281785	b E_X_5a	-0.12813136
-2.0582936	t_h E_X_5a	-0.2851665
-1.919065	tS E_X_5a	-0.2851665
-1.8169137	x E_X_5a	-0.2851665
-1.9842527	S E_X_5a	-0.2851665
-1.8391637	G E_X_5a	-0.2851665
-2.093878	<s> 7_3	-1.53665
-1.7600143	| 7_3	-1.2977678
-2.240548	m 7_3	-0.12813136
-2.0104265	k 7_3	-0.2851665
-2.0560663	b 7_3	-0.1744409
-1.9676555	l 7_3	-0.2851665
-1.9200824	h 7_3	-0.2851665
-2.0452924	wp 7_3	-0.2851665
-2.070494	t_h 7_3	-0.12813136
-1.9362168	ts_ 7_3	-0.2851665
-2.3203592	n 7_3	-0.12813136
-1.9294547	v 7_3	-0.2851665
-1.8133045	tS 7_3	-0.2851665
-1.7346531	x 7_3	-0.2851665
-1.8692812	S 7_3	-0.2851665
-1.8978816	s 7_3	-0.2851665
-1.6716944	f 7_3	-0.2851665
-1.7570581	dZ 7_3	-0.2851665
-3.2831466	| uo_2	-0.2851665
-2.4903362	m uo_2	-0.12813136
-2.121003	d uo_2	-0.2851665
-2.2009683	k uo_2	-0.2851665
-2.3159869	b uo_2	-0.12813136
-2.139878	l uo_2	-0.2851665
-2.1025736	ts_ uo_2	-0.2851665
-2.0038147	r uo_2	-0.2851665
-2.3477256	m E_2	-0.1995895
-2.1679285	d E_2	-0.1744409
-2.0953302	k E_2	-0.2851665
-2.021001	b E_2	-0.2851665
-2.1669395	h E_2	-0.12813136
-2.1061015	wp E_2	-0.2851665
-1.9929807	t_h E_2	-0.2851665
-2.1108851	N E_2	-0.2851665
-2.011478	ts_ E_2	-0.2851665
-2.21816	n E_2	-0.2851665
-1.9968289	v E_2	-0.2851665
-2.089605	tS E_2	-0.12813136
-1.9866985	J E_2	-0.2851665
-2.2234054	m i_3	-0.2851665
-2.1345584	k i_3	-0.2851665
-2.0586722	b i_3	-0.2851665
-2.0231607	h i_3	-0.2851665
-2.1330283	wp i_3	-0.2851665
-2.0244105	t_h i_3	-0.2851665
-2.1389387	N i_3	-0.2851665
-2.2263975	ts_ i_3	-0.1744409
-2.0122125	J i_3	-0.2851665
-2.1519337	t i_3	-0.2851665
-2.070199	x i_3	-0.12813136
-3.190185	| o_5a	-0.2851665
-2.0384185	d o_5a	-0.1995895
-2.1010776	k o_5a	-0.1744409
-2.036935	b o_5a	-0.12813136
-1.9536659	l o_5a	-0.2851665
-1.907168	h o_5a	-0.2851665
-1.9103967	t_h o_5a	-0.2851665
-1.9226118	ts_ o_5a	-0.2851665
-2.1433392	n o_5a	-0.2851665
-1.917149	v o_5a	-0.2851665
-1.8029981	tS o_5a	-0.2851665
-1.875909	r o_5a	-0.2851665
-1.9053521	z o_5a	-0.2851665
-2.1608357	t o_5a	-0.12813136
-1.7264053	x o_5a	-0.2851665
-2.0270722	S o_5a	-0.12813136
-1.8855429	s o_5a	-0.2851665
-1.9627205	dZ o_5a	-0.12813136
-1.750141	G o_5a	-0.2851665
-2.2055187	m E_5b	-0.2851665
-2.1145017	k E_5b	-0.2851665
-2.006851	h E_5b	-0.2851665
-2.1193562	wp E_5b	-0.2851665
-2.0084114	t_h E_5b	-0.2851665
-2.2319865	n E_5b	-0.2851665
-1.9992682	J E_5b	-0.2851665
-1.9528414	r E_5b	-0.2851665
-2.1997337	z E_5b	-0.1744409
-1.9803299	s E_5b	-0.2851665
-1.7140038	f E_5b	-0.2851665
-2.0774567	G E_5b	-0.12813136
-2.372745	m O_6a	-0.12813136
-2.1145017	k O_6a	-0.2851665
-2.1928716	b O_6a	-0.12813136
-2.1907213	h O_6a	-0.12813136
-2.0084114	t_h O_6a	-0.2851665
-2.331363	N O_6a	-0.12813136
-2.2002428	ts_ O_6a	-0.12813136
-2.2319865	n O_6a	-0.2851665
-1.8808775	tS O_6a	-0.2851665
-1.9992682	J O_6a	-0.2851665
-2.1997337	z O_6a	-0.12813136
-1.8104904	G O_6a	-0.2851665
-2.1345584	k M7_3	-0.2851665
-2.2547328	l M7_3	-0.12813136
-2.0231607	h M7_3	-0.2851665
-2.0244105	t_h M7_3	-0.2851665
-2.045659	ts_ M7_3	-0.2851665
-2.4615474	n M7_3	-0.12813136
-1.8932374	tS M7_3	-0.2851665
-1.9650348	r M7_3	-0.2851665
-2.0089731	z M7_3	-0.2851665
-2.3349004	t M7_3	-0.12813136
-1.9559453	S M7_3	-0.2851665
-3.8627775	<s> o_6b	-0.2851665
-2.3992944	m o_6b	-0.12813136
-2.2213845	d o_6b	-0.2851665
-2.2882104	k o_6b	-0.12813136
-2.0586722	b o_6b	-0.2851665
-2.08069	l o_6b	-0.2851665
-2.2158809	h o_6b	-0.12813136
-2.045659	ts_ o_6b	-0.2851665
-2.2462678	n o_6b	-0.2851665
-2.0122125	J o_6b	-0.2851665
-1.8198394	G o_6b	-0.2851665
-2.1441839	d O_X_5b	-0.2851665
-2.1615467	l O_X_5b	-0.2851665
-2.228564	t O_X_5b	-0.2851665
-1.8375211	x O_X_5b	-0.2851665
-2.2835486	S O_X_5b	-0.12813136
-2.3120828	s O_X_5b	-0.12813136
-2.1726882	G O_X_5b	-0.12813136
-3.171714	| M7_1	-0.2851665
-2.2041278	m M7_1	-0.1995895
-1.9104934	d M7_1	-0.2851665
-1.9101429	b M7_1	-0.2851665
-1.9401128	l M7_1	-0.2851665
-2.029266	h M7_1	-0.12813136
-2.0356834	t_h M7_1	-0.12813136
-2.0249043	N M7_1	-0.2851665
-1.9094204	ts_ M7_1	-0.2851665
-2.1320326	n M7_1	-0.2851665
-2.0492587	v M7_1	-0.1744409
-1.9698197	tS M7_1	-0.12813136
-1.6867745	p M7_1	-0.2851665
-1.9076279	J M7_1	-0.2851665
-1.8939791	z M7_1	-0.2851665
-2.0171335	t M7_1	-0.2851665
-1.847395	S M7_1	-0.2851665
-2.017101	s M7_1	-0.12813136
-1.903679	f M7_1	-0.12813136
-1.7421656	G M7_1	-0.2851665
-2.3033774	m 7_X_4	-0.2851665
-2.1441839	d 7_X_4	-0.2851665
-2.1615467	l 7_X_4	-0.2851665
-2.2011473	N 7_X_4	-0.2851665
-2.0944881	v 7_X_4	-0.2851665
-2.0682313	J 7_X_4	-0.2851665
-2.0718226	z 7_X_4	-0.2851665
-3.3071725	| a_X_4	-0.2851665
-2.1441839	d a_X_4	-0.2851665
-2.334253	h a_X_4	-0.12813136
-2.3086102	n a_X_4	-0.2851665
-2.0145347	S a_X_4	-0.2851665
-2.0634644	s a_X_4	-0.2851665
-1.859388	G a_X_4	-0.2851665
-2.2339087	l ie_4	-0.2851665
-2.2430947	wp ie_4	-0.2851665
-2.2544525	N ie_4	-0.2851665
-2.1257558	z ie_4	-0.2851665
-1.8458481	<s> G	-0.7863608
-1.6196965	| G	-0.48049575
-2.143481	d M7_5a	-0.12813136
-2.0769696	k M7_5a	-0.2851665
-2.1423285	b M7_5a	-0.1744409
-2.0286093	l M7_5a	-0.2851665
-2.1443927	h M7_5a	-0.1744409
-1.9953462	ts_ M7_5a	-0.2851665
-2.20476	n M7_5a	-0.2851665
-2.1612022	v M7_5a	-0.12813136
-1.9294357	r M7_5a	-0.2851665
-1.9671662	z M7_5a	-0.2851665
-2.1022048	t M7_5a	-0.2851665
-1.769306	x M7_5a	-0.2851665
-1.9166691	S M7_5a	-0.2851665
-1.9510732	s M7_5a	-0.2851665
-2.2234054	m ie_6a	-0.2851665
-2.058072	d ie_6a	-0.2851665
-2.08069	l ie_6a	-0.2851665
-2.0231607	h ie_6a	-0.2851665
-1.7405608	wp ie_6a	-0.2977678
-2.0244105	t_h ie_6a	-0.2851665
-2.2462678	n ie_6a	-0.2851665
-2.0270061	v ie_6a	-0.2851665
-1.9650348	r ie_6a	-0.2851665
-2.0089731	z ie_6a	-0.2851665
-2.1519337	t ie_6a	-0.2851665
-2.4495661	| uo_5a	-0.5376211
-2.4903362	m uo_5a	-0.1995895
-2.3861988	k uo_5a	-0.1744409
-2.3463607	l uo_5a	-0.12813136
-2.076122	h uo_5a	-0.2851665
-2.1025736	ts_ uo_5a	-0.2851665
-1.9991299	S uo_5a	-0.2851665
-2.280757	s uo_5a	-0.1744409
-2.9511802	<s> M7_5b	-0.7237365
-2.8651173	| M7_5b	-0.1744409
-2.1718142	m M7_5b	-0.2851665
-2.0769696	k M7_5b	-0.2851665
-2.1423285	b M7_5b	-0.12813136
-2.179109	l M7_5b	-0.12813136
-1.9780797	t_h M7_5b	-0.2851665
-2.3953547	n M7_5b	-0.12813136
-2.070334	tS M7_5b	-0.12813136
-1.9294357	r M7_5b	-0.2851665
-1.9671662	z M7_5b	-0.2851665
-2.1022048	t M7_5b	-0.2851665
-1.9166691	S M7_5b	-0.2851665
-1.9510732	s M7_5b	-0.2851665
-2.143481	d 7_X_6a	-0.1744409
-2.2083116	k 7_X_6a	-0.1744409
-2.003324	b 7_X_6a	-0.2851665
-2.2908158	wp 7_X_6a	-0.12813136
-1.9780797	t_h 7_X_6a	-0.2851665
-2.1522315	ts_ 7_X_6a	-0.1744409
-2.1612022	v 7_X_6a	-0.1744409
-1.8571656	tS 7_X_6a	-0.2851665
-1.9744825	J 7_X_6a	-0.2851665
-2.1565597	z 7_X_6a	-0.12813136
-2.1022048	t 7_X_6a	-0.2851665
-1.6994379	f 7_X_6a	-0.2851665
-1.7929027	dZ 7_X_6a	-0.2851665
-1.7923753	G 7_X_6a	-0.2851665
-2.3936656	d e_3	-0.12813136
-2.4664612	k e_3	-0.12813136
-2.1843534	l e_3	-0.2851665
-2.2087016	wp e_3	-0.2851665
-2.3721561	t_h e_3	-0.12813136
-2.325702	n e_3	-0.2851665
-2.281785	b ie_5b	-0.12813136
-1.5664443	wp ie_5b	-0.42270654
-2.0582936	t_h ie_5b	-0.2851665
-2.283967	ts_ ie_5b	-0.12813136
-2.0594378	v ie_5b	-0.2851665
-2.392027	t ie_5b	-0.12813136
-1.8169137	x ie_5b	-0.2851665
-2.028279	s ie_5b	-0.2851665
-1.8423169	dZ ie_5b	-0.2851665
-3.3071725	| i_4	-0.2851665
-2.2255707	k i_4	-0.2851665
-2.1615467	l i_4	-0.2851665
-2.462024	N i_4	-0.1744409
-1.9465264	tS i_4	-0.2851665
-2.228564	t i_4	-0.2851665
-2.0145347	S i_4	-0.2851665
-2.6279297	<s> e_5b	-1.0247666
-2.269658	| e_5b	-0.8206466
-2.1555865	k e_5b	-0.2851665
-2.0788083	b e_5b	-0.2851665
-2.0401068	h e_5b	-0.2851665
-2.1536756	N e_5b	-0.2851665
-2.254229	ts_ e_5b	-0.1744409
-2.2610345	n e_5b	-0.2851665
-2.362525	t e_5b	-0.12813136
-2.2241642	s e_5b	-0.12813136
-2.1441839	d a_6b	-0.2851665
-2.1615467	l a_6b	-0.2851665
-2.334253	h a_6b	-0.12813136
-1.7636697	wp a_6b	-0.1744409
-2.2011473	N a_6b	-0.2851665
-2.0682313	J a_6b	-0.2851665
-2.0145347	S a_6b	-0.2851665
-2.2420607	m M7_6a	-0.2851665
-2.2831802	l M7_6a	-0.12813136
-2.0410216	t_h M7_6a	-0.2851665
-2.3790195	N M7_6a	-0.12813136
-2.2610345	n M7_6a	-0.2851665
-2.2559557	v M7_6a	-0.12813136
-2.0255544	J M7_6a	-0.2851665
-1.9775805	r M7_6a	-0.2851665
-2.2476783	z M7_6a	-0.12813136
-2.1698613	t M7_6a	-0.2851665
-2.2255707	k E_4	-0.2851665
-2.145509	b E_4	-0.2851665
-2.1615467	l E_4	-0.2851665
-2.3436575	v E_4	-0.12813136
-2.228564	t E_4	-0.2851665
-2.2835486	S E_4	-0.12813136
-2.0634644	s E_4	-0.2851665
-2.021001	b a_X_3	-0.2851665
-2.045285	l a_X_3	-0.2851665
-1.9911315	h a_X_3	-0.2851665
-2.1061015	wp a_X_3	-0.2851665
-1.9929807	t_h a_X_3	-0.2851665
-2.1755738	ts_ a_X_3	-0.1744409
-2.21816	n a_X_3	-0.2851665
-1.9968289	v a_X_3	-0.2851665
-1.9866985	J a_X_3	-0.2851665
-1.9654552	s a_X_3	-0.2851665
-1.7066598	f a_X_3	-0.2851665
-1.802346	dZ a_X_3	-0.2851665
-1.8013383	G a_X_3	-0.2851665
-2.2213845	d 7_6a	-0.2851665
-2.0586722	b 7_6a	-0.2851665
-2.2547328	l 7_6a	-0.1995895
-2.0231607	h 7_6a	-0.2851665
-2.0244105	t_h 7_6a	-0.2851665
-2.1389387	N 7_6a	-0.2851665
-2.045659	ts_ 7_6a	-0.2851665
-2.0270061	v 7_6a	-0.2851665
-1.9559453	S 7_6a	-0.2851665
-1.9957322	s 7_6a	-0.2851665
-1.8198394	G 7_6a	-0.2851665
-3.4377432	| M7_4	-0.12813136
-2.1776848	k M7_4	-0.2851665
-2.0999238	b M7_4	-0.2851665
-2.1192393	l M7_4	-0.2851665
-2.0827618	ts_ M7_4	-0.2851665
-2.2763212	n M7_4	-0.2851665
-1.9842527	S M7_4	-0.2851665
-2.028279	s M7_4	-0.2851665
-2.1289432	dZ M7_4	-0.12813136
-3.4055955	| u_3	-0.1744409
-2.0780525	d u_3	-0.2851665
-2.3184814	k u_3	-0.1744409
-2.099537	l u_3	-0.2851665
-2.0410216	t_h u_3	-0.2851665
-2.1536756	N u_3	-0.2851665
-2.254229	ts_ u_3	-0.12813136
-2.2267294	r u_3	-0.12813136
-2.362525	t u_3	-0.12813136
-2.088615	x u_3	-0.12813136
-2.3033774	m uo_5b	-0.2851665
-2.4244785	k uo_5b	-0.12813136
-2.3086102	n uo_5b	-0.2851665
-2.0944881	v uo_5b	-0.2851665
-2.228564	t uo_5b	-0.2851665
-2.2835486	S uo_5b	-0.12813136
-2.3120828	s uo_5b	-0.12813136
-2.0780525	d i_6b	-0.2851665
-2.1555865	k i_6b	-0.2851665
-2.0788083	b i_6b	-0.2851665
-2.099537	l i_6b	-0.2851665
-2.0410216	t_h i_6b	-0.2851665
-2.1536756	N i_6b	-0.2851665
-2.0638142	ts_ i_6b	-0.2851665
-2.0429192	v i_6b	-0.2851665
-2.0255544	J i_6b	-0.2851665
-2.0238535	z i_6b	-0.2851665
-2.1946237	d ie_3	-0.2851665
-2.4385064	b ie_3	-0.1744409
-2.1364508	h ie_3	-0.2851665
-2.5228693	wp ie_3	-0.12813136
-2.2726293	t ie_3	-0.2851665
-2.1441839	d 7_4	-0.2851665
-2.1615467	l 7_4	-0.2851665
-2.2011473	N 7_4	-0.2851665
-2.0944881	v 7_4	-0.2851665
-2.0682313	J 7_4	-0.2851665
-2.017551	r 7_4	-0.2851665
-2.0718226	z 7_4	-0.2851665
-2.1585784	h 7_6b	-0.2851665
-2.4739795	ts_ 7_6b	-0.12813136
-2.0615761	r 7_6b	-0.2851665
-2.2964606	t 7_6b	-0.2851665
-2.393715	b e_6a	-0.1744409
-2.1843534	l e_6a	-0.2851665
-2.325702	n e_6a	-0.2851665
-2.1131346	v e_6a	-0.2851665
-2.0834427	J e_6a	-0.2851665
-2.2500381	t e_6a	-0.2851665
-2.92228	| M_5a	-0.2977678
-2.3163853	d M_5a	-0.12813136
-2.3861988	k M_5a	-0.15532053
-2.0762808	t_h M_5a	-0.2851665
-2.1025736	ts_ M_5a	-0.2851665
-1.9325787	tS M_5a	-0.2851665
-1.9991299	S M_5a	-0.2851665
-2.280757	s M_5a	-0.12813136
-2.2615533	m 7_X_3	-0.2851665
-2.098997	d 7_X_3	-0.2851665
-2.1776848	k 7_X_3	-0.2851665
-2.4043045	wp 7_X_3	-0.12813136
-2.2763212	n 7_X_3	-0.2851665
-2.0594378	v 7_X_3	-0.2851665
-2.188561	t 7_X_3	-0.2851665
-1.8169137	x 7_X_3	-0.2851665
-1.7368118	f 7_X_3	-0.2851665
-2.139878	l a_X_6a	-0.2851665
-2.18474	N a_X_6a	-0.2851665
-2.3158917	ts_ a_X_6a	-0.12813136
-2.2921658	n a_X_6a	-0.2851665
-2.0535347	J a_X_6a	-0.2851665
-2.3015802	z a_X_6a	-0.1744409
-2.208102	t a_X_6a	-0.2851665
-1.849158	G a_X_6a	-0.2851665
-2.170231	b E_X_6b	-0.2851665
-2.1153963	h E_X_6b	-0.2851665
-2.2087016	wp E_X_6b	-0.2851665
-2.0305061	S E_X_6b	-0.2851665
-2.082187	s E_X_6b	-0.2851665
-1.8698647	G E_X_6b	-0.2851665
-3.879734	<s> E_X_2	-0.2851665
-2.0780525	d E_X_2	-0.2851665
-2.3184814	k E_X_2	-0.12813136
-2.099537	l E_X_2	-0.2851665
-2.2425883	h E_X_2	-0.12813136
-2.1471446	wp E_X_2	-0.2851665
-2.2469013	t_h E_X_2	-0.12813136
-2.0255544	J E_X_2	-0.2851665
-2.0238535	z E_X_2	-0.2851665
-1.831974	dZ E_X_2	-0.2851665
-2.741617	| E_X_3	-0.42270654
-2.2615533	m E_X_3	-0.2851665
-2.1776848	k E_X_3	-0.2851665
-2.0999238	b E_X_3	-0.2851665
-2.1192393	l E_X_3	-0.2851665
-2.0582936	t_h E_X_3	-0.2851665
-2.16893	N E_X_3	-0.2851665
-1.9904995	r E_X_3	-0.2851665
-2.0392618	z E_X_3	-0.2851665
-2.3496628	m E_X_6a	-0.2851665
-2.2793987	k E_X_6a	-0.2851665
-2.2084246	l E_X_6a	-0.2851665
-2.1364508	h E_X_6a	-0.2851665
-2.343494	n E_X_6a	-0.2851665
-2.4244785	k E_X_5b	-0.12813136
-2.145509	b E_X_5b	-0.2851665
-2.2011473	N E_X_5b	-0.2851665
-2.0944881	v E_X_5b	-0.2851665
-2.1490693	x E_X_5b	-0.12813136
-2.2835486	S E_X_5b	-0.12813136
-2.0634644	s E_X_5b	-0.2851665
-2.3033774	m O_4	-0.2851665
-2.462024	N O_4	-0.12813136
-2.1233327	ts_ O_4	-0.2851665
-2.0944881	v O_4	-0.2851665
-2.017551	r O_4	-0.2851665
-2.0718226	z O_4	-0.2851665
-1.859388	G O_4	-0.2851665
-2.3496628	m uo_6a	-0.2851665
-2.2793987	k uo_6a	-0.2851665
-2.2084246	l uo_6a	-0.2851665
-2.0463998	r uo_6a	-0.2851665
-2.107024	z uo_6a	-0.2851665
-3.879734	<s> u_6a	-0.2851665
-2.1555865	k u_6a	-0.2851665
-2.0788083	b u_6a	-0.2851665
-2.099537	l u_6a	-0.2851665
-2.1536756	N u_6a	-0.2851665
-2.4860609	n u_6a	-0.12813136
-1.9775805	r u_6a	-0.2851665
-2.0238535	z u_6a	-0.2851665
-2.1698613	t u_6a	-0.2851665
-1.7290753	f u_6a	-0.2851665
-2.2420607	m u_6b	-0.2851665
-2.0780525	d u_6b	-0.2851665
-2.1555865	k u_6b	-0.2851665
-2.0410216	t_h u_6b	-0.2851665
-2.0638142	ts_ u_6b	-0.2851665
-2.0429192	v u_6b	-0.2851665
-2.1698613	t u_6b	-0.2851665
-1.9698684	S u_6b	-0.2851665
-2.0117009	s u_6b	-0.2851665
-1.7290753	f u_6b	-0.2851665
-2.1585784	h O_X_6a	-0.2851665
-2.153016	v O_X_6a	-0.2851665
-1.9912771	tS O_X_6a	-0.2851665
-1.8980839	dZ O_X_6a	-0.2851665
-2.4903362	m M_6b	-0.12813136
-2.139878	l M_6b	-0.2851665
-2.0762808	t_h M_6b	-0.2851665
-2.18474	N M_6b	-0.2851665
-2.2921658	n M_6b	-0.2851665
-2.0766094	v M_6b	-0.2851665
-2.0038147	r M_6b	-0.2851665
-1.8529121	dZ M_6b	-0.2851665
-3.3884306	| 7_5b	-0.2851665
-2.2222257	d 7_5b	-0.2851665
-2.509521	l 7_5b	-0.12813136
-2.0615761	r 7_5b	-0.2851665
-3.2387483	| O_X_5a	-0.2851665
-2.0780525	d O_X_5a	-0.2851665
-2.250081	b O_X_5a	-0.12813136
-2.0401068	h O_X_5a	-0.2851665
-2.0638142	ts_ O_X_5a	-0.2851665
-2.2610345	n O_X_5a	-0.2851665
-1.9698684	S O_X_5a	-0.2851665
-2.0117009	s O_X_5a	-0.2851665
-1.7290753	f O_X_5a	-0.2851665
-1.831974	dZ O_X_5a	-0.2851665
-3.2831466	| O_5b	-0.2851665
-2.3159869	b O_5b	-0.12813136
-2.301501	h O_5b	-0.12813136
-2.1025736	ts_ O_5b	-0.2851665
-2.0766094	v O_5b	-0.2851665
-2.208102	t O_5b	-0.2851665
-2.0455155	s O_5b	-0.2851665
-1.849158	G O_5b	-0.2851665
-2.2339087	l e_4	-0.2851665
-2.2544525	N e_4	-0.2851665
-2.389207	r e_4	-0.12813136
-2.1257558	z e_4	-0.2851665
-2.4505882	h O_6b	-0.12813136
-2.2544525	N O_6b	-0.2851665
-1.9912771	tS O_6b	-0.2851665
-1.8980839	dZ O_6b	-0.2851665
-2.4014761	m e_6b	-0.2851665
-2.2517014	d e_6b	-0.2851665
-2.145332	z e_6b	-0.2851665
-2.3747973	m O_X_3	-0.2851665
-2.2243457	b O_X_3	-0.2851665
-2.1585784	h O_X_3	-0.2851665
-2.156757	t_h O_X_3	-0.2851665
-2.1762946	h E_X_4	-0.2851665
-2.3950498	m uo_4	-0.2851665

\3-grams:
-1.1713834	a_2 | </s>	0
-1.1344547	m | </s>	0
-1.0277047	a_5a | </s>	0
-1.3739141	a_4 | </s>	0
-1.1498013	k | </s>	0
-1.2368072	O_5a | </s>	0
-1.370261	E_5a | </s>	0
-0.97312725	e_1 | </s>	0
-0.938847	i_5a | </s>	0
-1.2118449	a_1 | </s>	0
-1.2481784	N | </s>	0
-0.9191003	E_3 | </s>	0
-1.0841256	o_3 | </s>	0
-1.2420636	j | </s>	0
-1.1385258	n | </s>	0
-1.157845	o_1 | </s>	0
-1.2615974	u_4 | </s>	0
-1.2926687	Nm | </s>	0
-1.1409959	p | </s>	0
-1.1461798	J | </s>	0
-1.0109222	M_1 | </s>	0
-1.0053021	M_3 | </s>	0
-1.1506546	w | </s>	0
-1.1000987	O_1 | </s>	0
-0.93237096	a_6a | </s>	0
-0.83349615	7_2 | </s>	0
-0.88092583	a_3 | </s>	0
-1.127266	t | </s>	0
-1.2734933	M7_2 | </s>	0
-1.0458467	i_1 | </s>	0
-1.1966912	e_5a | </s>	0
-0.911927	u_2 | </s>	0
-1.2075686	7_5a | </s>	0
-1.2888187	i_2 | </s>	0
-1.035033	E_1 | </s>	0
-0.98620474	uo_1 | </s>	0
-1.288493	M_4 | </s>	0
-1.0227381	u_1 | </s>	0
-1.3378812	M_2 | </s>	0
-1.320529	e_2 | </s>	0
-1.1685559	kp | </s>	0
-1.1940022	o_6a | </s>	0
-1.1587565	u_5a | </s>	0
-0.9833125	O_2 | </s>	0
-1.1486261	o_2 | </s>	0
-0.29709515	ie_2 | </s>	0
-1.165509	ie_1 | </s>	0
-1.0791748	7_1 | </s>	0
-0.9897856	o_4 | </s>	0
-1.3642528	E_6a | </s>	0
-1.1011701	O_3 | </s>	0
-1.2612288	i_6a | </s>	0
-1.2754185	M_6a | </s>	0
-1.4990106	7_3 | </s>	0
-1.3203276	uo_2 | </s>	0
-0.78680736	E_2 | </s>	0
-0.8577796	i_3 | </s>	0
-1.3960009	o_5a | </s>	0
-0.9259438	O_6a | </s>	0
-1.3316467	M7_3 | </s>	0
-1.2872895	M7_1 | </s>	0
-1.0365748	ie_4 | </s>	0
-1.2430376	M7_5a | </s>	0
-1.0395335	uo_5a | </s>	0
-1.2764461	e_3 | </s>	0
-0.6726346	i_4 | </s>	0
-1.1843631	M7_6a | </s>	0
-1.3653811	E_4 | </s>	0
-1.3571253	7_6a | </s>	0
-0.75626993	M7_4 | </s>	0
-1.1858624	u_3 | </s>	0
-1.3309199	7_4 | </s>	0
-1.3288745	M_5a | </s>	0
-1.2209005	O_4 | </s>	0
-0.5786407	uo_6a | </s>	0
-1.1348436	u_6a | </s>	0
-1.2198473	e_4 | </s>	0
-2.3415594	a_2 | a_2	-0.15841858
-2.6343024	m | a_2	-0.18067394
-2.455005	k | a_2	-0.18067394
-2.1951442	O_5a | a_2	-0.15841858
-2.379384	a_1 | a_2	-0.18067394
-2.8939137	j | a_2	-0.18067394
-2.852213	n | a_2	-0.15841858
-2.348957	p | a_2	-0.18067394
-1.7393633	M_3 | a_2	-0.18067394
-2.6590855	w | a_2	-0.15841858
-2.603451	t | a_2	-0.18067394
-1.7879188	e_5a | a_2	-0.18067394
-2.1746747	<s> m a_2	-0.4266948
-1.2271267	| m a_2	-1.1432382
-1.6676662	<s> d a_2	-0.8246348
-1.6944336	| d a_2	-0.47337064
-2.948603	<s> k a_2	-0.15841858
-2.1800458	| k a_2	-0.2284281
-1.1565913	<s> b a_2	-0.97076285
-1.253576	| b a_2	-0.87914044
-0.63755697	<s> l a_2	-0.9272971
-1.0207477	| l a_2	-1.0510991
-1.4315988	<s> h a_2	-0.5236048
-1.5401479	| h a_2	-0.511215
-0.51368225	| wp a_2	-0.15841858
-0.78634804	d wp a_2	-0.18067394
-1.256905	k wp a_2	-0.18067394
-0.98194206	l wp a_2	-0.18067394
-1.139977	h wp a_2	-0.16571105
-1.0571651	N wp a_2	-0.18067394
-1.0191578	t wp a_2	-0.16571105
-1.0184937	s wp a_2	-0.18067394
-1.69839	<s> N a_2	-0.4266948
-1.4426695	| N a_2	-0.399552
-1.4199606	<s> ts_ a_2	-0.7949455
-1.4890983	| ts_ a_2	-0.60278606
-0.6107973	<s> n a_2	-1.6634839
-0.9514244	| n a_2	-0.9258838
-0.8643794	<s> v a_2	-1.1670575
-0.9266313	| v a_2	-1.1453438
-1.5763255	| tS a_2	-0.36870286
-0.59448326	<s> J a_2	-1.5805097
-1.0823828	| J a_2	-0.8233361
-1.9459294	| r a_2	-0.16571105
-1.5636652	| z a_2	-0.3913958
-2.1812377	<s> t a_2	-0.36508697
-1.7767427	| t a_2	-0.7277248
-2.118	| x a_2	-0.15841858
-2.0283833	| S a_2	-0.18067394
-2.2346413	| s a_2	-0.18067394
-1.8817396	| f a_2	-0.18067394
-1.8226806	| dZ a_2	-0.30175605
-0.41143528	<s> G a_2	-1.3928366
-0.9085304	| G a_2	-1.0007261
-0.052511398	<s> a_2 |	-0.55163354
-0.041079994	| a_2 |	-0.24231726
-0.44374496	m a_2 |	-0.17827684
-0.5705045	d a_2 |	-0.18067394
-0.5729927	k a_2 |	-0.18067394
-0.58696914	b a_2 |	-0.1720607
-0.58696914	l a_2 |	-0.17352198
-0.56098926	h a_2 |	-0.17419805
-0.4858486	wp a_2 |	-0.18864796
-0.5238752	N a_2 |	-0.18067394
-0.6046268	n a_2 |	-0.18067394
-0.56098926	v a_2 |	-0.16829266
-0.41155478	tS a_2 |	-0.18067394
-0.56104875	J a_2 |	-0.17396004
-0.41155478	r a_2 |	-0.18067394
-0.4558102	t a_2 |	-0.18067394
-0.20179544	x a_2 |	-0.18067394
-0.51226544	S a_2 |	-0.18067394
-0.20179544	dZ a_2 |	-0.18067394
-0.33118254	G a_2 |	-0.17219399
-0.12397657	a_2 m |	-0.17475736
-0.050791446	a_5a m |	-0.1897681
-0.12397657	O_5a m |	-0.17312801
-0.2918731	E_5a m |	-0.16940373
-0.17464882	e_1 m |	-0.1678173
-0.18102477	i_5a m |	-0.18067394
-0.066465445	a_1 m |	-0.20256688
-0.050791446	7_X_1 m |	-0.18933068
-0.12397657	o_1 m |	-0.19339532
-0.05757933	a_X_1 m |	-0.2442547
-0.066465445	a_X_2 m |	-0.19210622
-0.2918731	O_1 m |	-0.18067394
-0.04110384	7_X_2 m |	-0.20075393
-0.12397657	a_6a m |	-0.18067394
-0.18102477	7_2 m |	-0.18067394
-0.2918731	a_3 m |	-0.17717493
-0.12397657	i_1 m |	-0.18502863
-0.18102477	e_5a m |	-0.18067394
-0.2918731	u_2 m |	-0.18067394
-0.17464882	7_5a m |	-0.16571102
-0.2918731	i_2 m |	-0.18067394
-0.078603715	7_X_5a m |	-0.17099595
-0.078603715	E_1 m |	-0.2643758
-0.09618823	ie_5a m |	-0.17562881
-0.2918731	u_1 m |	-0.18067394
-0.18102477	M_2 m |	-0.18067394
-0.18102477	e_2 m |	-0.18067394
-0.066465445	a_X_5a m |	-0.19139291
-0.18102477	o_6a m |	-0.18067394
-0.18102477	u_5a m |	-0.18067394
-0.17464882	O_2 m |	-0.16940373
-0.18102477	o_2 m |	-0.18067394
-0.2918731	ie_2 m |	-0.16940373
-0.2918731	ie_1 m |	-0.18067394
-0.12397657	7_1 m |	-0.19519474
-0.2918731	7_3 m |	-0.18067394
-0.18102477	E_2 m |	-0.18067394
-0.2918731	i_3 m |	-0.15841858
-0.18102477	o_5a m |	-0.18067394
-0.17464882	7_X_4 m |	-0.18067394
-0.2918731	a_X_4 m |	-0.15841858
-0.18102477	M7_5a m |	-0.18067394
-0.18102477	ie_6a m |	-0.18067394
-0.2918731	7_X_6a m |	-0.18067394
-0.18102477	a_X_3 m |	-0.18067394
-0.2918731	ie_3 m |	-0.17613071
-0.18102477	7_X_3 m |	-0.18067394
-0.18102477	a_X_6a m |	-0.18067394
-0.18102477	O_4 m |	-0.18067394
-0.18102477	uo_6a m |	-0.18067394
-0.18102477	u_6a m |	-0.18067394
-0.18102477	uo_4 m |	-0.18067394
-0.5238847	m a_5a |	-0.17562881
-0.7106404	d a_5a |	-0.18067394
-0.64082015	k a_5a |	-0.1744903
-0.658439	b a_5a |	-0.15841858
-0.5238847	l a_5a |	-0.18067394
-0.5843303	h a_5a |	-0.18067394
-0.733952	wp a_5a |	-0.17064165
-0.2355625	J a_5a |	-0.18067394
-0.46769112	r a_5a |	-0.18067394
-0.5384364	x a_5a |	-0.18067394
-0.46769112	f a_5a |	-0.18067394
-0.46769112	dZ a_5a |	-0.18067394
-0.30540475	d a_4 |	-0.1788509
-0.389846	b a_4 |	-0.18067394
-0.18827479	N a_4 |	-0.18067394
-0.18827479	J a_4 |	-0.18067394
-0.389846	r a_4 |	-0.18067394
-0.18827479	s a_4 |	-0.18067394
-0.07658921	a_X_5b k |	-0.22578824
-0.16963995	a_X_6b k |	-0.18780167
-0.060152683	a_5b k |	-0.31033218
-0.054326683	M_5b k |	-0.23120612
-0.25479618	ie_6b k |	-0.18067394
-0.25479618	uo_6b k |	-0.18067394
-0.44029891	7_X_5b k |	-0.18067394
-0.16963995	i_5b k |	-0.19540878
-0.16963995	M7_6b k |	-0.18517457
-0.060152683	M7_5b k |	-0.28044766
-0.44029891	ie_5b k |	-0.17742392
-0.24499594	e_5b k |	-0.17026033
-0.16963995	a_6b k |	-0.17562881
-0.25479618	uo_5b k |	-0.18067394
-0.24499594	i_6b k |	-0.18067394
-0.10544629	E_X_6b k |	-0.2668453
-0.088722505	E_X_5b k |	-0.23933361
-0.088722505	M_6b k |	-0.20206398
-0.43460083	d O_5a |	-0.17475736
-0.2690016	k O_5a |	-0.16479273
-0.35885152	b O_5a |	-0.18067394
-0.37211964	l O_5a |	-0.18067394
-0.37211964	N O_5a |	-0.18067394
-0.2690016	ts_ O_5a |	-0.17763978
-0.38666442	n O_5a |	-0.16571105
-0.16853264	tS O_5a |	-0.18067394
-0.16853264	r O_5a |	-0.18067394
-0.4467986	x O_5a |	-0.18067394
-0.2690016	dZ O_5a |	-0.1744903
-0.7451219	<s> E_5a |	-0.18067394
-0.3801012	| E_5a |	-0.18067394
-0.26709193	b E_5a |	-0.16571102
-0.357215	h E_5a |	-0.18067394
-0.16747609	wp E_5a |	-0.18067394
-0.16747609	J E_5a |	-0.18067394
-0.16747609	s E_5a |	-0.18067394
-0.26709193	G E_5a |	-0.16571105
-0.15343513	<s> e_1 |	-0.18067394
-0.33566943	m e_1 |	-0.18067394
-0.3516677	d e_1 |	-0.18067394
-0.35104892	k e_1 |	-0.18067394
-0.3516677	b e_1 |	-0.17116387
-0.35104892	l e_1 |	-0.18067394
-0.34154156	wp e_1 |	-0.18067394
-0.15343513	ts_ e_1 |	-0.18067394
-0.4095517	tS e_1 |	-0.18067394
-0.15343513	r e_1 |	-0.18067394
-0.24205902	z e_1 |	-0.17163445
-0.3516677	t e_1 |	-0.15841858
-0.24205902	s e_1 |	-0.17163445
-0.018734667	<s> i_5a |	-0.539673
-0.020867087	| i_5a |	-0.31639883
-0.39101347	k i_5a |	-0.17562881
-0.14859454	b i_5a |	-0.18067394
-0.43771267	l i_5a |	-0.18067394
-0.14859454	h i_5a |	-0.18067394
-0.14859454	wp i_5a |	-0.18067394
-0.39268517	ts_ i_5a |	-0.18067394
-0.32832634	v i_5a |	-0.18067394
-0.14859454	tS i_5a |	-0.18067394
-0.4097067	t i_5a |	-0.18067394
-0.32832634	x i_5a |	-0.18067394
-0.14859454	s i_5a |	-0.18067394
-0.26045555	<s> a_1 |	-0.23550984
-0.99857277	| a_1 |	-0.2576772
-0.5252526	m a_1 |	-0.18067394
-0.45705783	d a_1 |	-0.18067394
-0.52387166	k a_1 |	-0.17654175
-0.52387166	b a_1 |	-0.16571105
-0.6451038	l a_1 |	-0.18067394
-0.57198334	h a_1 |	-0.18067394
-0.42020792	wp a_1 |	-0.17921089
-0.52387166	t_h a_1 |	-0.17500226
-0.51336634	N a_1 |	-0.18067394
-0.45705783	ts_ a_1 |	-0.18067394
-0.57425904	n a_1 |	-0.18067394
-0.51336634	v a_1 |	-0.18067394
-0.41242754	p a_1 |	-0.18067394
-0.5252526	J a_1 |	-0.18067394
-0.33222404	r a_1 |	-0.17703559
-0.41242754	z a_1 |	-0.18067394
-0.5625793	t a_1 |	-0.17163445
-0.57198334	S a_1 |	-0.18067394
-0.5625793	s a_1 |	-0.18067394
-0.33222404	f a_1 |	-0.18067394
-0.5625793	dZ a_1 |	-0.17163445
-0.03597284	a_2 N |	-0.38613194
-0.052969903	a_5a N |	-0.24021135
-0.19017823	a_4 N |	-0.18067394
-0.033302195	a_1 N |	-0.33851528
-0.12980212	7_X_1 N |	-0.22849964
-0.060069595	M_1 N |	-0.19846496
-0.060069595	a_X_1 N |	-0.2572442
-0.06937168	a_X_2 N |	-0.20961551
-0.19017823	M_3 N |	-0.18067394
-0.19017823	7_X_2 N |	-0.18067394
-0.3089902	a_6a N |	-0.18067394
-0.12980212	a_3 N |	-0.17654175
-0.08209276	M7_2 N |	-0.22922514
-0.18340693	uo_1 N |	-0.17163445
-0.12980212	M_4 N |	-0.17396004
-0.10055248	ie_5a N |	-0.23311627
-0.047372594	M_2 N |	-0.37794775
-0.060069595	a_X_5a N |	-0.24622457
-0.19017823	ie_2 N |	-0.18067394
-0.10055248	ie_1 N |	-0.22222537
-0.3089902	M_6a N |	-0.18067394
-0.18340693	uo_2 N |	-0.18067394
-0.12980212	M7_3 N |	-0.21909566
-0.033302195	M7_1 N |	-0.24699984
-0.19017823	a_X_4 N |	-0.18067394
-0.06937168	M7_5a N |	-0.16839351
-0.19017823	ie_6a N |	-0.18067394
-0.18340693	uo_5a N |	-0.17387673
-0.3089902	M7_6a N |	-0.17562881
-0.08209276	a_X_3 N |	-0.17688462
-0.19017823	ie_3 N |	-0.18067394
-0.10055248	M_5a N |	-0.19598484
-0.18340693	a_X_6a N |	-0.17688462
-0.3089902	uo_6a N |	-0.16571102
-0.08076043	m E_3 |	-0.18067394
-0.08076043	d E_3 |	-0.18067394
-0.20721385	k E_3 |	-0.16571105
-0.08076043	b E_3 |	-0.18067394
-0.2294357	l E_3 |	-0.18067394
-0.08076043	wp E_3 |	-0.18067394
-0.08076043	t_h E_3 |	-0.18067394
-0.08076043	n E_3 |	-0.18067394
-0.08076043	v E_3 |	-0.18067394
-0.2294357	tS E_3 |	-0.18067394
-0.2294357	z E_3 |	-0.18067394
-0.1212541	S E_3 |	-0.17312801
-0.13281655	m o_3 |	-0.18067394
-0.3046771	d o_3 |	-0.18067394
-0.3046771	k o_3 |	-0.18067394
-0.13281655	b o_3 |	-0.18067394
-0.20638846	h o_3 |	-0.17163445
-0.13281655	tS o_3 |	-0.18067394
-0.30143347	t o_3 |	-0.17562881
-0.13281655	x o_3 |	-0.18067394
-0.13281655	S o_3 |	-0.18067394
-0.13281655	s o_3 |	-0.18067394
-0.13281655	f o_3 |	-0.18067394
-0.0015429268	a_2 j |	-0.3589984
-0.001697524	a_5a j |	-0.3176315
-0.0028329126	a_4 j |	-0.20869198
-0.0021229372	O_5a j |	-0.2681387
-0.0010601844	a_1 j |	-0.33110812
-0.0024270555	o_3 j |	-0.21882083
-0.0014141465	7_X_1 j |	-0.27403712
-0.0014141465	o_1 j |	-0.28671032
-0.004256303	u_4 j |	-0.17099595
-0.0015429268	a_X_1 j |	-0.42701256
-0.0021229372	a_X_2 j |	-0.27929085
-0.008427314	M_3 j |	-0.18067394
-0.004256303	O_1 j |	-0.19915038
-0.0056844	7_X_2 j |	-0.16899186
-0.0021229372	a_6a j |	-0.2401191
-0.0021229372	7_2 j |	-0.292165
-0.0024270555	a_3 j |	-0.20596792
-0.0056844	M7_2 j |	-0.21374117
-0.0028329126	u_2 j |	-0.21740732
-0.0034017093	7_5a j |	-0.24854816
-0.0024270555	7_X_5a j |	-0.28951946
-0.0034017093	uo_1 j |	-0.18682276
-0.0056844	u_1 j |	-0.18067394
-0.0034017093	a_X_5a j |	-0.18067394
-0.0024270555	o_6a j |	-0.27461177
-0.0024270555	u_5a j |	-0.24682458
-0.008427314	O_2 j |	-0.18067394
-0.0021229372	o_2 j |	-0.2847138
-0.0014141465	7_1 j |	-0.31692508
-0.0056844	uo_3 j |	-0.19915038
-0.004256303	o_4 j |	-0.19598484
-0.0028329126	O_3 j |	-0.25075042
-0.004256303	7_3 j |	-0.20792861
-0.0014141465	o_5a j |	-0.21254879
-0.0056844	O_6a j |	-0.17654175
-0.0056844	M7_1 j |	-0.18067394
-0.005852889	7_X_4 j |	-0.18067394
-0.008427314	a_X_4 j |	-0.17782886
-0.004256303	M7_5a j |	-0.17654175
-0.0034017093	uo_5a j |	-0.20869198
-0.0056844	7_X_6a j |	-0.16755348
-0.0024270555	a_X_3 j |	-0.18864796
-0.0034017093	7_6a j |	-0.17419805
-0.005852889	M7_4 j |	-0.18067394
-0.008427314	u_3 j |	-0.18067394
-0.0028329126	7_X_3 j |	-0.17064165
-0.0056844	a_X_6a j |	-0.17312801
-0.005852889	O_4 j |	-0.18067394
-0.005852889	u_6a j |	-0.18067394
-0.005852889	uo_4 j |	-0.18067394
-0.054641858	a_2 n |	-0.21295363
-0.06445662	a_5a n |	-0.17312801
-0.14507362	a_4 n |	-0.18067394
-0.14017543	O_5a n |	-0.17163445
-0.14017543	E_5a n |	-0.17064165
-0.06445662	e_1 n |	-0.3659939
-0.2274439	i_5a n |	-0.18067394
-0.078580946	a_1 n |	-0.22485547
-0.02856605	7_X_1 n |	-0.40641612
-0.06445662	o_1 n |	-0.17163445
-0.14507362	u_4 n |	-0.18067394
-0.14507362	M_1 n |	-0.18067394
-0.031033585	a_X_1 n |	-0.3000178
-0.2274439	a_X_2 n |	-0.18067394
-0.078580946	O_1 n |	-0.20277992
-0.03751559	7_X_2 n |	-0.31580275
-0.2274439	a_6a n |	-0.16829266
-0.14017543	7_2 n |	-0.17163445
-0.054641858	a_3 n |	-0.25368363
-0.2274439	M7_2 n |	-0.17742392
-0.078580946	i_1 n |	-0.17763978
-0.14017543	e_5a n |	-0.17654175
-0.14507362	u_2 n |	-0.18067394
-0.2274439	7_5a n |	-0.17613071
-0.14017543	i_2 n |	-0.1716345
-0.14017543	7_X_5a n |	-0.16940373
-0.06445662	E_1 n |	-0.23269728
-0.14017543	uo_1 n |	-0.17244853
-0.04189129	ie_5a n |	-0.2063731
-0.14017543	u_1 n |	-0.16571105
-0.14017543	e_2 n |	-0.18067394
-0.04742367	a_X_5a n |	-0.25849262
-0.14017543	o_6a n |	-0.18067394
-0.14507362	u_5a n |	-0.18067394
-0.14017543	O_2 n |	-0.18587114
-0.2274439	o_2 n |	-0.18067394
-0.06445662	ie_2 n |	-0.19143945
-0.04189129	ie_1 n |	-0.29079738
-0.04742367	7_1 n |	-0.2445183
-0.2274439	E_6a n |	-0.18067394
-0.14507362	i_6a n |	-0.18067394
-0.10066791	uo_2 n |	-0.17654175
-0.10066791	E_2 n |	-0.20095289
-0.10066791	o_5a n |	-0.17562881
-0.078580946	O_6a n |	-0.20626308
-0.2274439	M7_1 n |	-0.18067394
-0.10066791	7_X_4 n |	-0.16940373
-0.14017543	a_X_4 n |	-0.18067394
-0.2274439	ie_4 n |	-0.18067394
-0.14507362	M7_5a n |	-0.18067394
-0.054641858	ie_6a n |	-0.23909806
-0.14017543	uo_5a n |	-0.19501199
-0.03751559	7_X_6a n |	-0.27150485
-0.14017543	M7_6a n |	-0.18067394
-0.14017543	E_4 n |	-0.18067394
-0.14507362	a_X_3 n |	-0.18067394
-0.2274439	7_6a n |	-0.17688462
-0.14507362	M7_4 n |	-0.18067394
-0.2274439	ie_3 n |	-0.1704163
-0.2274439	e_6a n |	-0.18067394
-0.2274439	7_X_3 n |	-0.18067394
-0.14017543	a_X_6a n |	-0.18067394
-0.2274439	uo_6a n |	-0.18067394
-1.5164738	<s> o_1 |	-0.18067394
-1.0493764	| o_1 |	-0.18067394
-0.5897262	m o_1 |	-0.18067394
-0.54210544	d o_1 |	-0.18067394
-0.48917085	k o_1 |	-0.16978753
-0.54210544	l o_1 |	-0.18067394
-0.54210544	t_h o_1 |	-0.18067394
-0.47229213	N o_1 |	-0.18067394
-0.42302394	n o_1 |	-0.18067394
-0.20883532	v o_1 |	-0.18067394
-0.20883532	J o_1 |	-0.18067394
-0.5425117	t o_1 |	-0.18067394
-0.59010565	x o_1 |	-0.18067394
-0.54210544	s o_1 |	-0.18067394
-0.3355376	m u_4 |	-0.16571105
-0.40292978	k u_4 |	-0.18067394
-0.3355376	l u_4 |	-0.16940373
-0.15040757	h u_4 |	-0.18067394
-0.15040757	N u_4 |	-0.18067394
-0.15040757	n u_4 |	-0.18067394
-0.3355376	v u_4 |	-0.18067394
-0.15040757	r u_4 |	-0.18067394
-0.3310717	z u_4 |	-0.18067394
-0.02382526	o_3 Nm |	-0.18067394
-0.0036352733	o_1 Nm |	-0.47327572
-0.011927632	u_4 Nm |	-0.19379072
-0.007915245	O_X_2 Nm |	-0.1845455
-0.0036352733	O_X_1 Nm |	-0.3083093
-0.0067756334	u_2 Nm |	-0.28111902
-0.004731831	u_1 Nm |	-0.22514208
-0.009515786	o_6a Nm |	-0.2401249
-0.015977433	u_5a Nm |	-0.17906483
-0.005922869	o_2 Nm |	-0.2920861
-0.016456863	o_4 Nm |	-0.18067394
-0.015977433	O_X_4 Nm |	-0.18067394
-0.005922869	o_5a Nm |	-0.2719706
-0.02382526	u_3 Nm |	-0.15841858
-0.011927632	u_6a Nm |	-0.16940373
-0.011927632	O_X_6a Nm |	-0.17219399
-0.004731831	O_X_5a Nm |	-0.28649157
-0.011927632	O_X_3 Nm |	-0.17163445
-0.019120622	a_X_5b p |	-0.16648586
-0.080788605	E_6b p |	-0.17782886
-0.080788605	a_X_6b p |	-0.17312801
-0.039121993	a_5b p |	-0.17244853
-0.05298704	u_5b p |	-0.17763978
-0.054649346	ie_6b p |	-0.18067394
-0.031010563	7_X_5b p |	-0.17244853
-0.054649346	i_5b p |	-0.18067394
-0.015228554	7_X_6b p |	-0.2433791
-0.025685906	E_5b p |	-0.17244853
-0.080788605	o_6b p |	-0.18067394
-0.054649346	M7_5b p |	-0.18067394
-0.05298704	ie_5b p |	-0.17099595
-0.039121993	e_5b p |	-0.16866264
-0.080788605	a_6b p |	-0.18067394
-0.05298704	i_6b p |	-0.26817694
-0.05298704	7_6b p |	-0.18067394
-0.054649346	u_6b p |	-0.18067394
-0.080788605	7_5b p |	-0.18067394
-0.05298704	O_5b p |	-0.17163445
-0.054649346	O_6b p |	-0.18067394
-0.054649346	e_6b p |	-0.18067394
-0.22456588	e_1 J |	-0.16940373
-0.12047137	i_5a J |	-0.1694037
-0.09792697	i_1 J |	-0.21974827
-0.08251148	i_2 J |	-0.31069458
-0.056071732	E_X_1 J |	-0.34324902
-0.22456588	i_6a J |	-0.18067394
-0.06277341	E_X_5a J |	-0.27738884
-0.22456588	i_3 J |	-0.18067394
-0.22456588	i_4 J |	-0.17312801
-0.39434886	e_6a J |	-0.16940373
-0.056071732	E_X_2 J |	-0.279268
-0.06277341	E_X_3 J |	-0.2061279
-0.12047137	E_X_6a J |	-0.20823859
-0.23331101	e_4 J |	-0.18067394
-0.23331101	E_X_4 J |	-0.18067394
-0.4200464	| M_1 |	-0.18067394
-0.5373452	l M_1 |	-0.18067394
-0.34133282	t_h M_1 |	-0.17562881
-0.48420435	J M_1 |	-0.17522775
-0.34133282	S M_1 |	-0.16571105
-0.34133282	s M_1 |	-0.15841858
-0.35183987	k M_3 |	-0.18067394
-0.15382382	t_h M_3 |	-0.18067394
-0.15382382	t M_3 |	-0.18067394
-0.2427436	S M_3 |	-0.16940373
-0.2427436	s M_3 |	-0.17312801
-0.0017251754	a_2 w |	-0.31315202
-0.0018823593	a_5a w |	-0.3009973
-0.007148286	a_4 w |	-0.18067394
-0.004152013	E_5a w |	-0.22846662
-0.006942205	e_1 w |	-0.18067394
-0.0034572312	i_5a w |	-0.17500226
-0.00159221	a_1 w |	-0.34854203
-0.0051962486	E_3 w |	-0.16571105
-0.00159221	7_X_1 w |	-0.36376816
-0.006942205	M_1 w |	-0.18067394
-0.002590353	a_X_1 w |	-0.29205662
-0.0051962486	a_X_2 w |	-0.17064165
-0.007148286	M_3 w |	-0.18067394
-0.0051962486	7_X_2 w |	-0.20765257
-0.004152013	a_6a w |	-0.16684392
-0.006942205	a_3 w |	-0.16571102
-0.007148286	i_1 w |	-0.18067394
-0.007148286	e_5a w |	-0.18067394
-0.00230176	7_X_5a w |	-0.23649691
-0.00230176	E_1 w |	-0.23155259
-0.0029616454	ie_5a w |	-0.19284229
-0.006942205	e_2 w |	-0.17688462
-0.006942205	a_X_5a w |	-0.20168912
-0.0051962486	ie_2 w |	-0.22301254
-0.004152013	ie_1 w |	-0.24184448
-0.007148286	E_6a w |	-0.18067394
-0.0051962486	i_6a w |	-0.21191965
-0.007148286	M_6a w |	-0.18067394
-0.004152013	E_2 w |	-0.18739203
-0.007148286	M7_1 w |	-0.18067394
-0.007148286	7_X_4 w |	-0.18067394
-0.007148286	ie_4 w |	-0.18067394
-0.010299294	M7_5a w |	-0.16571105
-0.0034572312	ie_6a w |	-0.17312801
-0.006942205	7_X_6a w |	-0.16829266
-0.007148286	i_4 w |	-0.18067394
-0.007148286	M7_6a w |	-0.18067394
-0.007148286	E_4 w |	-0.18067394
-0.0051962486	ie_3 w |	-0.1694037
-0.007148286	M_5a w |	-0.18067394
-0.007148286	7_X_3 w |	-0.18067394
-0.4113605	k O_1 |	-0.18067394
-0.15425777	l O_1 |	-0.18067394
-0.15425777	t_h O_1 |	-0.18067394
-0.24350838	ts_ O_1 |	-0.17892087
-0.33692157	n O_1 |	-0.18067394
-0.4113605	v O_1 |	-0.18067394
-0.34318003	J O_1 |	-0.18067394
-0.15425777	z O_1 |	-0.18067394
-0.15425777	t O_1 |	-0.18067394
-0.33692157	S O_1 |	-0.18067394
-0.0570068	| a_6a |	-0.4588576
-0.5451968	l a_6a |	-0.18067394
-0.53042066	h a_6a |	-0.17613071
-0.6871667	wp a_6a |	-0.1737039
-0.6638684	z a_6a |	-0.18067394
-0.67865396	t a_6a |	-0.18067394
-0.056886293	<s> 7_2 |	-0.15841858
-0.12654446	| 7_2 |	-0.18067394
-0.19577534	b 7_2 |	-0.17654175
-0.29800174	t_h 7_2 |	-0.18067394
-0.2953925	N 7_2 |	-0.18067394
-0.34536225	ts_ 7_2 |	-0.16940373
-0.35253656	v 7_2 |	-0.18067394
-0.29800174	tS 7_2 |	-0.18067394
-0.19577534	J 7_2 |	-0.17500226
-0.12654446	r 7_2 |	-0.18067394
-0.12654446	t 7_2 |	-0.18067394
-0.12654446	S 7_2 |	-0.18067394
-0.12654446	s 7_2 |	-0.18067394
-0.19577534	dZ 7_2 |	-0.16816933
-0.12654446	G 7_2 |	-0.18067394
-0.17804533	| a_3 |	-0.18067394
-0.40957996	k a_3 |	-0.16507201
-0.50819767	b a_3 |	-0.18067394
-0.17804533	l a_3 |	-0.18067394
-0.3736859	h a_3 |	-0.18067394
-0.583178	wp a_3 |	-0.17717493
-0.46556175	t_h a_3 |	-0.18067394
-0.3736859	ts_ a_3 |	-0.18067394
-0.17804533	v a_3 |	-0.18067394
-0.3736859	tS a_3 |	-0.18067394
-0.17804533	r a_3 |	-0.18067394
-0.45627755	t a_3 |	-0.17654175
-0.46556175	f a_3 |	-0.18067394
-0.4999938	dZ a_3 |	-0.16940373
-0.06018242	a_X_5b t |	-0.23651606
-0.37030426	E_6b t |	-0.18067394
-0.09372062	a_X_6b t |	-0.19421563
-0.04076114	a_5b t |	-0.33067018
-0.06832732	u_5b t |	-0.1845455
-0.115161605	o_5b t |	-0.17244853
-0.14944871	M_5b t |	-0.18067394
-0.115161605	ie_6b t |	-0.19501199
-0.09372062	uo_6b t |	-0.19915038
-0.044337105	7_X_5b t |	-0.41162795
-0.06832732	i_5b t |	-0.17064165
-0.06832732	7_X_6b t |	-0.25311568
-0.14944871	M7_6b t |	-0.17688462
-0.07902889	E_5b t |	-0.25008467
-0.09372062	o_6b t |	-0.19001822
-0.115161605	M7_5b t |	-0.17613071
-0.09372062	ie_5b t |	-0.2525212
-0.115161605	e_5b t |	-0.18682276
-0.115161605	a_6b t |	-0.21465485
-0.09372062	uo_5b t |	-0.21191965
-0.14944871	i_6b t |	-0.18067394
-0.22158514	7_6b t |	-0.18067394
-0.09372062	u_6b t |	-0.18067394
-0.22158514	M_6b t |	-0.18067394
-0.37030426	7_5b t |	-0.18067394
-0.115161605	O_5b t |	-0.20869198
-0.21339522	O_6b t |	-0.17312801
-0.37030426	e_6b t |	-0.18067394
-0.53823316	d M7_2 |	-0.18067394
-0.39888117	l M7_2 |	-0.16940373
-0.2354841	n M7_2 |	-0.18067394
-0.5664102	v M7_2 |	-0.17717493
-0.53603566	| i_1 |	-0.18067394
-0.33796838	m i_1 |	-0.18067394
-0.1895902	d i_1 |	-0.17064165
-0.12286031	k i_1 |	-0.18067394
-0.12286031	b i_1 |	-0.18067394
-0.40610635	l i_1 |	-0.18067394
-0.08593015	wp i_1 |	-0.17562881
-0.12286031	t_h i_1 |	-0.18067394
-0.1895902	N i_1 |	-0.18067394
-0.2852369	ts_ i_1 |	-0.17163445
-0.1895902	v i_1 |	-0.17500226
-0.12286031	p i_1 |	-0.18067394
-0.1895902	J i_1 |	-0.16571105
-0.12286031	r i_1 |	-0.18067394
-0.28996858	z i_1 |	-0.18067394
-0.33796838	t i_1 |	-0.16571105
-0.1895902	x i_1 |	-0.16663127
-0.3450206	s i_1 |	-0.18067394
-0.1895902	f i_1 |	-0.16940373
-0.12286031	G i_1 |	-0.18067394
-0.12328085	k e_5a |	-0.18067394
-0.28346723	b e_5a |	-0.17312801
-0.19029449	t_h e_5a |	-0.16623667
-0.12328085	ts_ e_5a |	-0.18067394
-0.12328085	z e_5a |	-0.18067394
-0.12328085	t e_5a |	-0.18067394
-0.12328085	x e_5a |	-0.18067394
-0.12328085	G e_5a |	-0.18067394
-0.42908886	k u_2 |	-0.18067394
-0.39268196	l u_2 |	-0.18067394
-0.39268196	t_h u_2 |	-0.18067394
-0.1900555	N u_2 |	-0.18067394
-0.43957436	z u_2 |	-0.18067394
-0.48859912	t u_2 |	-0.18067394
-0.39268196	s u_2 |	-0.18067394
-0.1900555	f u_2 |	-0.18067394
-0.1900555	G u_2 |	-0.18067394
-0.21039942	| 7_5a |	-0.18067394
-0.21039942	N 7_5a |	-0.18067394
-0.21039942	ts_ 7_5a |	-0.18067394
-0.3479782	J 7_5a |	-0.17799568
-0.4633721	t 7_5a |	-0.16180651
-0.3655147	m i_2 |	-0.18067394
-0.25455242	k i_2 |	-0.18067394
-0.3655147	h i_2 |	-0.18067394
-0.25455242	wp i_2 |	-0.18067394
-0.25455242	t_h i_2 |	-0.17064165
-0.34644398	ts_ i_2 |	-0.18067394
-0.25455242	v i_2 |	-0.16571105
-0.34644398	tS i_2 |	-0.18067394
-0.34644398	r i_2 |	-0.18067394
-0.34644398	dZ i_2 |	-0.18067394
-1.6762031	<s> E_1 |	-0.15841858
-0.20074748	b E_1 |	-0.18067394
-0.40985736	l E_1 |	-0.18067394
-0.44138792	wp E_1 |	-0.18067394
-0.3291582	N E_1 |	-0.16839351
-0.3291582	ts_ E_1 |	-0.17163445
-0.51066303	v E_1 |	-0.17163445
-0.44138792	tS E_1 |	-0.17163445
-0.40985736	S E_1 |	-0.18067394
-0.5253266	s E_1 |	-0.16940373
-0.20057617	<s> uo_1 |	-0.18067394
-0.50977695	m uo_1 |	-0.18067394
-0.20057617	k uo_1 |	-0.18067394
-0.20057617	t_h uo_1 |	-0.18067394
-0.20057617	ts_ uo_1 |	-0.18067394
-0.4410033	v uo_1 |	-0.17312801
-0.31176314	l M_4 |	-0.18067394
-0.1375741	N M_4 |	-0.18067394
-0.21451055	ts_ M_4 |	-0.18067394
-0.1375741	n M_4 |	-0.18067394
-0.1375741	z M_4 |	-0.18067394
-0.1375741	dZ M_4 |	-0.18067394
-0.2874171	m ie_5a |	-0.18067394
-0.5603181	N ie_5a |	-0.18067394
-0.51562476	f ie_5a |	-0.18067394
-0.38239944	| u_1 |	-0.18067394
-0.4562506	d u_1 |	-0.18067394
-0.38239944	k u_1 |	-0.18067394
-0.3665554	l u_1 |	-0.18067394
-0.3665554	h u_1 |	-0.18067394
-0.27800784	t_h u_1 |	-0.16839351
-0.17348737	N u_1 |	-0.18067394
-0.17348737	ts_ u_1 |	-0.18067394
-0.3665554	v u_1 |	-0.18067394
-0.3665554	r u_1 |	-0.18067394
-0.3665554	z u_1 |	-0.18067394
-0.27800784	x u_1 |	-0.16571105
-0.051530365	<s> M_2 |	-0.16039532
-0.54559964	| M_2 |	-0.18067394
-0.23831232	tS M_2 |	-0.18067394
-0.53081	t M_2 |	-0.17387673
-0.48621848	d e_2 |	-0.18067394
-0.390772	b e_2 |	-0.18067394
-0.18885674	h e_2 |	-0.18067394
-0.48621848	n e_2 |	-0.18067394
-0.3064995	v e_2 |	-0.1712619
-0.014353	u_5b kp |	-0.23989633
-0.024192149	o_5b kp |	-0.17419805
-0.015977433	O_X_6b kp |	-0.24760167
-0.036813106	o_6b kp |	-0.22849964
-0.020652521	O_X_5b kp |	-0.26410848
-0.036813106	u_6b kp |	-0.17312801
-0.50061977	m o_6a |	-0.18067394
-0.43976474	b o_6a |	-0.17562881
-0.58948183	h o_6a |	-0.18067394
-0.25455338	N o_6a |	-0.18067394
-0.6297431	k u_5a |	-0.18067394
-0.22245614	t_h u_5a |	-0.18067394
-0.5275254	ts_ u_5a |	-0.16466174
-0.491753	t u_5a |	-0.16571105
-0.22245614	f u_5a |	-0.18067394
-0.1321521	m O_2 |	-0.18067394
-0.1321521	d O_2 |	-0.18067394
-0.34897175	k O_2 |	-0.17312801
-0.20525905	b O_2 |	-0.18067394
-0.1321521	l O_2 |	-0.18067394
-0.30880496	h O_2 |	-0.18067394
-0.1321521	t_h O_2 |	-0.18067394
-0.30369043	tS O_2 |	-0.18067394
-0.1321521	z O_2 |	-0.18067394
-0.1321521	t O_2 |	-0.18067394
-0.089548595	<s> o_2 |	-0.3067496
-0.578381	m o_2 |	-0.18067394
-0.50488573	d o_2 |	-0.18067394
-0.37176841	b o_2 |	-0.16571105
-0.62930083	h o_2 |	-0.18067394
-0.22230868	v o_2 |	-0.18067394
-0.44531035	tS o_2 |	-0.18067394
-0.29366255	k ie_2 |	-0.18067394
-0.6543395	k ie_1 |	-0.18067394
-0.26553714	h ie_1 |	-0.18067394
-0.5201664	ts_ ie_1 |	-0.18067394
-0.5201664	t ie_1 |	-0.18067394
-0.26746246	<s> 7_1 |	-0.31782427
-0.19513701	m 7_1 |	-0.18067394
-0.5070514	d 7_1 |	-0.18067394
-0.5070514	k 7_1 |	-0.18067394
-0.40081283	l 7_1 |	-0.18067394
-0.19513701	wp 7_1 |	-0.18067394
-0.50382423	t_h 7_1 |	-0.17799568
-0.40081283	tS 7_1 |	-0.18067394
-0.4987632	r 7_1 |	-0.18067394
-0.19513701	t 7_1 |	-0.18067394
-0.40081283	S 7_1 |	-0.18067394
-0.4987632	s 7_1 |	-0.18067394
-0.43877843	k uo_3 |	-0.17869276
-0.17425978	d o_4 |	-0.18067394
-0.113637656	k o_4 |	-0.18067394
-0.2736114	b o_4 |	-0.18067394
-0.113637656	ts_ o_4 |	-0.18067394
-0.113637656	v o_4 |	-0.18067394
-0.2764844	r o_4 |	-0.18067394
-0.2764844	z o_4 |	-0.18067394
-0.113637656	dZ o_4 |	-0.18067394
-0.17425978	G o_4 |	-0.17500226
-0.25673538	m E_6a |	-0.16655234
-0.3483222	J E_6a |	-0.18067394
-0.16171023	z E_6a |	-0.18067394
-0.16171023	S E_6a |	-0.18067394
-0.27009624	m O_3 |	-0.1678173
-0.17827243	d O_3 |	-0.17654175
-0.17827243	k O_3 |	-0.17654175
-0.17827243	b O_3 |	-0.17419805
-0.17827243	t_h O_3 |	-0.16466174
-0.17827243	N O_3 |	-0.18067394
-0.11606417	n O_3 |	-0.18067394
-0.17827243	J O_3 |	-0.18067394
-0.17827243	t O_3 |	-0.17500226
-0.28001934	dZ O_3 |	-0.18067394
-0.26331654	b i_6a |	-0.17742392
-0.3539767	t_h i_6a |	-0.18067394
-0.16538127	N i_6a |	-0.18067394
-0.37922537	ts_ i_6a |	-0.1694037
-0.26331654	v i_6a |	-0.18067394
-0.16538127	tS i_6a |	-0.18067394
-0.16538127	t i_6a |	-0.18067394
-0.3483222	z M_6a |	-0.18067394
-0.35816646	t M_6a |	-0.18067394
-0.25673538	S M_6a |	-0.18067394
-0.16171023	s M_6a |	-0.18067394
-0.0043257913	<s> 7_3 |	-0.64550793
-0.007525657	| 7_3 |	-0.4738481
-0.12719467	m 7_3 |	-0.16940373
-0.2207902	b 7_3 |	-0.18067394
-0.23474036	l 7_3 |	-0.18067394
-0.08452062	h 7_3 |	-0.18067394
-0.08452062	wp 7_3 |	-0.18067394
-0.12719467	t_h 7_3 |	-0.18067394
-0.23474036	ts_ 7_3 |	-0.18067394
-0.12719467	n 7_3 |	-0.17500226
-0.08452062	v 7_3 |	-0.18067394
-0.08452062	tS 7_3 |	-0.18067394
-0.08452062	S 7_3 |	-0.18067394
-0.08452062	s 7_3 |	-0.18067394
-0.08452062	f 7_3 |	-0.18067394
-0.21158753	| uo_2 |	-0.18067394
-0.35032275	m uo_2 |	-0.16277933
-0.21158753	d uo_2 |	-0.18067394
-0.21158753	r uo_2 |	-0.18067394
-0.47196907	m E_2 |	-0.18067394
-0.4085321	d E_2 |	-0.18067394
-0.37793353	b E_2 |	-0.18067394
-0.2913597	h E_2 |	-0.17688462
-0.1807476	wp E_2 |	-0.18067394
-0.1807476	n E_2 |	-0.18067394
-0.1807476	J E_2 |	-0.18067394
-0.112512656	k i_3 |	-0.18067394
-0.112512656	b i_3 |	-0.18067394
-0.112512656	h i_3 |	-0.18067394
-0.112512656	wp i_3 |	-0.18067394
-0.27484855	t_h i_3 |	-0.18067394
-0.27484855	N i_3 |	-0.18067394
-0.26358467	ts_ i_3 |	-0.17352198
-0.112512656	J i_3 |	-0.18067394
-0.17240433	x i_3 |	-0.17562881
-0.61243534	d o_5a |	-0.17064165
-0.532219	k o_5a |	-0.17163445
-0.5769056	b o_5a |	-0.17163445
-0.4733485	l o_5a |	-0.18067394
-0.4733485	h o_5a |	-0.18067394
-0.5769056	S o_5a |	-0.18067394
-0.4733485	s o_5a |	-0.18067394
-0.21949092	k O_6a |	-0.18067394
-0.3660804	h O_6a |	-0.18067394
-0.21949092	t_h O_6a |	-0.18067394
-0.21949092	n O_6a |	-0.18067394
-0.111402206	k M7_3 |	-0.18067394
-0.17057602	l M7_3 |	-0.17419805
-0.27323574	t_h M7_3 |	-0.18067394
-0.111402206	ts_ M7_3 |	-0.18067394
-0.17057602	n M7_3 |	-0.16571105
-0.111402206	r M7_3 |	-0.18067394
-0.111402206	z M7_3 |	-0.18067394
-0.111402206	S M7_3 |	-0.18067394
-0.40362632	| M7_1 |	-0.18067394
-0.5011288	m M7_1 |	-0.17688462
-0.19688702	d M7_1 |	-0.18067394
-0.4572122	t_h M7_1 |	-0.16940373
-0.40362632	ts_ M7_1 |	-0.18067394
-0.32173994	tS M7_1 |	-0.18067394
-0.19688702	J M7_1 |	-0.18067394
-0.40362632	z M7_1 |	-0.18067394
-0.40362632	S M7_1 |	-0.18067394
-0.32173994	s M7_1 |	-0.17312801
-0.2501767	N ie_4 |	-0.18067394
-0.39582446	d M7_5a |	-0.17163445
-0.580894	l M7_5a |	-0.18067394
-0.5200285	h M7_5a |	-0.17654175
-0.23401983	ts_ M7_5a |	-0.18067394
-0.46506172	S M7_5a |	-0.18067394
-0.68837124	m uo_5a |	-0.18067394
-0.4495105	l uo_5a |	-0.17163445
-0.508412	ts_ uo_5a |	-0.18067394
-0.0757963	d e_3 |	-0.17342739
-0.0757963	k e_3 |	-0.17717493
-0.051368512	l e_3 |	-0.18067394
-0.051368512	wp e_3 |	-0.18067394
-0.0757963	t_h e_3 |	-0.18067394
-0.051368512	n e_3 |	-0.18067394
-0.17918995	| i_4 |	-0.18067394
-0.17918995	k i_4 |	-0.18067394
-0.39439017	N i_4 |	-0.17500226
-0.17918995	S i_4 |	-0.18067394
-0.28678152	N M7_6a |	-0.17500226
-0.17826965	n M7_6a |	-0.18067394
-0.17826965	J M7_6a |	-0.18067394
-0.28678152	z M7_6a |	-0.16571105
-0.37403795	t M7_6a |	-0.18067394
-0.35132182	v E_4 |	-0.16940373
-0.35132182	S E_4 |	-0.17839637
-0.21209288	s E_4 |	-0.18067394
-0.3055937	d 7_6a |	-0.18067394
-0.1334334	b 7_6a |	-0.18067394
-0.3667723	l 7_6a |	-0.18067394
-0.1334334	h 7_6a |	-0.18067394
-0.1334334	t_h 7_6a |	-0.18067394
-0.1334334	ts_ 7_6a |	-0.18067394
-0.1334334	v 7_6a |	-0.18067394
-0.3055937	S 7_6a |	-0.18067394
-0.1334334	s 7_6a |	-0.18067394
-0.09006189	b M7_4 |	-0.18067394
-0.09006189	l M7_4 |	-0.18067394
-0.09006189	ts_ M7_4 |	-0.18067394
-0.09006189	n M7_4 |	-0.18067394
-0.09006189	S M7_4 |	-0.18067394
-0.09006189	s M7_4 |	-0.18067394
-0.13600412	dZ M7_4 |	-0.17500226
-0.25746652	| u_3 |	-0.18067394
-0.10915369	d u_3 |	-0.18067394
-0.25746652	k u_3 |	-0.18067394
-0.10915369	t_h u_3 |	-0.18067394
-0.10915369	N u_3 |	-0.18067394
-0.16688296	ts_ u_3 |	-0.17562881
-0.16688296	r u_3 |	-0.17613071
-0.16688296	t u_3 |	-0.18067394
-0.04364758	d 7_4 |	-0.18067394
-0.04364758	l 7_4 |	-0.18067394
-0.04364758	N 7_4 |	-0.18067394
-0.04364758	v 7_4 |	-0.18067394
-0.04364758	J 7_4 |	-0.18067394
-0.04364758	r 7_4 |	-0.18067394
-0.04364758	z 7_4 |	-0.18067394
-0.4585271	b e_6a |	-0.15841858
-0.20829579	v e_6a |	-0.18067394
-0.20829579	t e_6a |	-0.18067394
-0.46493495	k M_5a |	-0.17163445
-0.18056299	t_h M_5a |	-0.18067394
-0.3776428	ts_ M_5a |	-0.18067394
-0.18056299	S M_5a |	-0.18067394
-0.2910178	s M_5a |	-0.16277933
-0.18421456	N O_4 |	-0.18067394
-0.119641155	ts_ O_4 |	-0.18067394
-0.119641155	v O_4 |	-0.18067394
-0.119641155	r O_4 |	-0.18067394
-0.119641155	G O_4 |	-0.18067394
-0.5636043	m uo_6a |	-0.18067394
-0.5636043	l uo_6a |	-0.18067394
-0.134613	<s> u_6a |	-0.18067394
-0.3073483	l u_6a |	-0.18067394
-0.134613	N u_6a |	-0.18067394
-0.20944794	n u_6a |	-0.18067394
-0.3073483	r u_6a |	-0.18067394
-0.3073483	z u_6a |	-0.18067394
-0.134613	t u_6a |	-0.18067394
-0.134613	f u_6a |	-0.18067394
-0.11661603	l e_4 |	-0.18067394
-0.28082454	N e_4 |	-0.18067394
-0.1791871	r e_4 |	-0.18067394
-0.11661603	z e_4 |	-0.18067394
-1.4756507	<s> a_2 m	-0.18067394
-1.0295323	l a_2 m	-0.15841858
-0.9626643	h a_2 m	-0.18067394
-0.9757492	n a_2 m	-0.18067394
-1.3509744	a_2 | m	-0.20314413
-1.2305439	m | m	-0.27323276
-1.424749	a_5a | m	-0.17312801
-1.4148619	a_4 | m	-0.18067394
-1.2793386	k | m	-0.2089646
-1.253599	O_5a | m	-0.22013634
-1.1516844	E_5a | m	-0.16571105
-1.395752	e_1 | m	-0.16571105
-1.1091459	i_5a | m	-0.17312801
-1.262954	a_1 | m	-0.1851292
-1.3695996	N | m	-0.25324148
-1.092538	E_3 | m	-0.17312801
-1.1014938	o_3 | m	-0.18067394
-1.3575062	j | m	-0.35862386
-1.33274	n | m	-0.29365903
-1.3232312	o_1 | m	-0.18067394
-1.3080708	u_4 | m	-0.18067394
-1.3398887	Nm | m	-0.18328916
-1.2288833	p | m	-0.28482157
-1.2792423	J | m	-0.1987967
-1.4379686	M_1 | m	-0.18067394
-1.4486325	M_3 | m	-0.18067394
-1.2982012	w | m	-0.2662774
-1.5504298	O_1 | m	-0.17613071
-1.4891576	a_6a | m	-0.18067394
-1.1756239	7_2 | m	-0.17419805
-1.4189413	a_3 | m	-0.16940373
-1.2146719	t | m	-0.31412026
-1.2375152	i_1 | m	-0.20206398
-1.4564043	e_5a | m	-0.16940373
-1.2375672	7_5a | m	-0.18067394
-1.4438651	i_2 | m	-0.18067394
-1.3088104	E_1 | m	-0.18067394
-1.4217008	uo_1 | m	-0.18067394
-1.3065017	M_4 | m	-0.15841858
-1.4656429	u_1 | m	-0.18067394
-1.3852102	M_2 | m	-0.18067394
-1.3555299	e_2 | m	-0.18067394
-1.4243734	kp | m	-0.18067394
-1.426107	u_5a | m	-0.18067394
-1.3978574	O_2 | m	-0.18067394
-1.4332321	o_2 | m	-0.18067394
-1.1912838	ie_1 | m	-0.18067394
-1.4712467	7_1 | m	-0.18067394
-1.3788083	uo_3 | m	-0.18067394
-1.4410944	o_4 | m	-0.18067394
-1.4023957	E_6a | m	-0.18067394
-1.640638	O_3 | m	-0.18067394
-1.5020648	i_6a | m	-0.18067394
-1.306567	M_6a | m	-0.18067394
-0.95303404	7_3 | m	-0.16571102
-1.0616786	uo_2 | m	-0.18067394
-1.4755828	i_3 | m	-0.18067394
-1.152512	o_5a | m	-0.18067394
-1.5207767	M7_1 | m	-0.18067394
-1.2746725	M7_5a | m	-0.18067394
-1.3585861	uo_5a | m	-0.18067394
-1.5125817	e_3 | m	-0.18067394
-1.1507462	E_4 | m	-0.16940373
-1.3847557	M7_4 | m	-0.18067394
-1.208615	u_3 | m	-0.18067394
-1.377807	7_4 | m	-0.18067394
-1.3789524	M_5a | m	-0.18067394
-1.1561756	u_6a | m	-0.18067394
-0.7766437	d a_5a m	-0.15841858
-0.7436599	b a_5a m	-0.18067394
-0.6342485	t_h a_5a m	-0.18067394
-0.6342485	ts_ a_5a m	-0.18067394
-0.59695613	tS a_5a m	-0.18067394
-0.5053252	z a_5a m	-0.18067394
-0.716644	t a_5a m	-0.18067394
-0.5803451	x a_5a m	-0.15841858
-0.6826991	s a_5a m	-0.18067394
-0.47396588	J O_5a m	-0.15841858
-0.26977262	t O_5a m	-0.18067394
-0.66478187	x O_5a m	-0.18067394
-0.6819004	s O_5a m	-0.15841858
-0.6003369	l E_5a m	-0.18067394
-0.3083057	n E_5a m	-0.18067394
-0.28778124	| e_1 m	-0.18067394
-0.7527988	d e_1 m	-0.15841858
-0.28778124	t_h e_1 m	-0.18067394
-0.5617095	J i_5a m	-0.15841858
-1.9112811	<s> a_1 m	-0.18067394
-0.826876	k a_1 m	-0.18067394
-0.9233115	l a_1 m	-0.18067394
-0.8471944	h a_1 m	-0.18067394
-0.8099593	t_h a_1 m	-0.15841858
-0.7974305	n a_1 m	-0.18067394
-0.88385004	t a_1 m	-0.18067394
-0.3395568	<s> 7_X_1 m	-0.60278606
-0.5181128	| 7_X_1 m	-0.4266948
-0.49427077	m 7_X_1 m	-0.18067394
-0.67838323	d 7_X_1 m	-0.15841858
-0.698802	l 7_X_1 m	-0.18067394
-0.61943793	t 7_X_1 m	-0.18067394
-0.2509392	x 7_X_1 m	-0.18067394
-0.66265595	S 7_X_1 m	-0.18067394
-0.698802	s 7_X_1 m	-0.18067394
-1.8522041	<s> o_1 m	-0.18067394
-1.1268859	| o_1 m	-0.30175605
-0.6795988	h o_1 m	-0.15841858
-0.29118645	r o_1 m	-0.18067394
-0.72231585	<s> a_X_1 m	-0.15841858
-0.6271888	k a_X_1 m	-0.18067394
-0.7650812	l a_X_1 m	-0.18067394
-0.58860826	h a_X_1 m	-0.18067394
-0.58860826	t_h a_X_1 m	-0.18067394
-0.2542401	ts_ a_X_1 m	-0.18067394
-0.73858786	n a_X_1 m	-0.15841858
-0.58860826	tS a_X_1 m	-0.18067394
-0.4570376	d a_X_2 m	-0.18067394
-0.5223582	h a_X_2 m	-0.18067394
-0.22928825	wp a_X_2 m	-0.18067394
-0.4570376	n a_X_2 m	-0.18067394
-0.5083269	r a_X_2 m	-0.15841858
-0.5704465	z a_X_2 m	-0.18067394
-0.4570376	t a_X_2 m	-0.18067394
-0.5716048	| O_1 m	-0.15841858
-0.76484394	J O_1 m	-0.18067394
-0.18246627	| 7_X_2 m	-0.18067394
-0.2945481	m 7_X_2 m	-0.15841858
-0.46989226	d 7_X_2 m	-0.15841858
-0.47363544	k 7_X_2 m	-0.18067394
-0.412288	l 7_X_2 m	-0.18067394
-0.4775418	t_h 7_X_2 m	-0.18067394
-0.3806429	N 7_X_2 m	-0.18067394
-0.412288	tS 7_X_2 m	-0.18067394
-0.3806429	z 7_X_2 m	-0.18067394
-0.3806429	t 7_X_2 m	-0.18067394
-0.412288	G 7_X_2 m	-0.18067394
-0.83756745	wp a_6a m	-0.18067394
-0.26989427	ts_ a_6a m	-0.18067394
-0.26989427	v a_6a m	-0.18067394
-0.7911291	t a_6a m	-0.18067394
-0.30665362	k 7_2 m	-0.18067394
-0.86506844	k a_3 m	-0.15841858
-0.8937361	t_h a_3 m	-0.18067394
-0.3274364	| i_1 m	-0.5236048
-0.79336697	l i_1 m	-0.18067394
-0.7304829	ts_ i_1 m	-0.15841858
-0.55086386	z i_1 m	-0.18067394
-0.71701354	n e_5a m	-0.18067394
-0.31060806	ts_ u_2 m	-0.18067394
-0.7742747	t u_2 m	-0.18067394
-0.6171138	m 7_5a m	-0.18067394
-0.26425532	S 7_5a m	-0.18067394
-0.26425532	s 7_5a m	-0.18067394
-0.6035876	ts_ i_2 m	-0.18067394
-0.8543737	t i_2 m	-0.15841858
-0.23977402	<s> 7_X_5a m	-0.4266948
-0.6919821	| 7_X_5a m	-0.4266948
-0.52446944	l 7_X_5a m	-0.15841858
-0.2357957	ts_ 7_X_5a m	-0.18067394
-0.5848511	n 7_X_5a m	-0.18067394
-0.2357957	t 7_X_5a m	-0.18067394
-0.020847015	<s> E_1 m	-1.6239754
-0.027249476	| E_1 m	-1.1468542
-0.4934228	d E_1 m	-0.18067394
-0.2504548	k E_1 m	-0.18067394
-0.4934228	t E_1 m	-0.18067394
-0.6978402	s E_1 m	-0.15841858
-0.8649182	| ie_5a m	-0.18067394
-0.60364264	k ie_5a m	-0.18067394
-0.5095092	l ie_5a m	-0.18067394
-0.5095092	h ie_5a m	-0.18067394
-0.69039565	ts_ ie_5a m	-0.18067394
-0.7714241	| u_1 m	-0.18067394
-0.60638857	s u_1 m	-0.18067394
-0.7056893	| M_2 m	-0.15841858
-0.29347175	m e_2 m	-0.18067394
-0.47056174	d a_X_5a m	-0.18067394
-0.47056174	k a_X_5a m	-0.18067394
-0.5428035	l a_X_5a m	-0.18067394
-0.47056174	t_h a_X_5a m	-0.18067394
-0.47056174	N a_X_5a m	-0.18067394
